3166 100
the -0.32342744 0.07665794 -0.21430387 -0.26695734 -0.29591477 -0.2461048 -0.35533226 -0.044180598 0.011335727 -0.13006634 -0.42430758 -0.27073482 -0.13259237 0.04446787 0.024582442 0.15449408 0.1781655 0.065673165 -0.024137022 0.34096086 -0.040041324 0.12717028 -0.3981651 -0.19372246 0.006424037 0.2674887 -0.084254876 0.14125596 -0.24587305 0.15465508 -0.41392606 0.258885 0.05513435 -0.15209514 -0.29513925 0.22518876 0.25275412 -0.034831364 -0.0016398196 -0.17832455 -0.14900918 -0.12165336 -0.0592269 0.121543005 -0.10502964 0.21061762 -0.073319644 -0.35859126 -0.3447349 0.23607697 -0.06522148 0.13415214 -0.022431372 -0.07641085 -0.09891267 -0.15497296 0.04159424 -0.02471207 -0.11371371 -0.46495488 -0.060275763 -0.17224996 0.11974829 0.25325185 -0.063728556 -0.18357067 0.08606846 0.021595567 0.36307397 -0.25672957 0.3193348 0.23962799 0.069780946 0.028559392 0.17450358 0.107007906 -0.09407556 0.023414267 0.3200905 0.2166039 -0.109425984 0.032317337 -0.14550377 0.009625247 -0.2515519 -0.031509858 0.39631334 0.0373626 0.06446344 0.18630062 0.08298364 -0.078430474 -0.13911031 -0.24833232 0.12972209 0.094330795 -0.1056152 0.0588185 0.3310127 -0.2251977
and 0.04873337 0.043492485 0.11073663 -0.17678002 0.11033281 -0.1738508 -0.27231294 -0.40957648 0.04843691 0.09396776 -0.05224464 0.012536786 -0.09200935 0.16942504 0.011336645 0.16103426 -0.037855033 0.07452512 -0.002365752 -0.028903117 -0.15098785 0.085659906 -0.42571062 -0.016910866 0.15606618 0.5719543 -0.080922455 0.044706337 -0.32746288 -0.03527174 -0.21929029 -0.16278753 0.0076839225 -0.03680804 -0.19811709 -0.14774987 -0.05825904 -0.20570163 -0.026333498 -0.074179955 -0.07834561 0.2502168 -0.16298422 -0.12975799 -0.21432236 -0.14494565 0.06709876 -0.33814558 -0.16949724 0.25245443 -0.07887282 0.16291723 -0.4778369 0.14505534 -0.04151745 -0.14966865 -0.07589172 0.17646848 -0.180226 -0.20313631 -0.21258807 -0.50518876 -0.088870816 -0.09212017 0.017238898 -0.1054398 0.23339686 0.008843724 0.31262812 -0.14165157 -0.15971449 0.015926374 -0.35337764 0.04644945 0.29737797 -0.16614863 -0.2519008 -0.18197004 0.3007139 -0.021582952 -0.07240022 -0.20808426 -0.29171205 -0.08466979 -0.041400284 0.1437696 -0.024426043 0.22690415 -0.16637695 0.14171202 0.019356351 0.03651385 -0.23077235 -0.034900773 -0.2707791 0.090636656 0.23091143 -0.04207237 0.13859385 -0.18676081
to -0.07829559 0.24632393 -0.34413362 -0.04642675 -0.09065302 -0.27503562 -0.110330485 -0.14741483 0.05699451 -0.12569317 -0.28634283 0.0034260566 0.124855705 0.40806413 -0.49848625 -0.16747014 -0.40208584 0.45891985 0.14267504 0.10805385 -0.42743936 0.38753462 -0.09759177 0.1868428 -0.02350338 0.22288781 -0.42395455 -0.0631163 -0.32241094 -0.114507 -0.2535581 -0.07376822 -0.20578134 0.00427215 -0.18171652 -0.021587249 0.18354063 0.017891219 0.16862196 -0.022791974 -0.21187942 0.20362084 0.13348946 0.36027732 -0.014147355 -0.03158834 0.06958868 -0.2931155 -0.3782272 0.071127996 -0.28114232 0.17437708 -0.09998257 0.13695021 -0.026188431 0.04776492 -0.038060356 -0.02421136 0.00985143 0.12675877 -0.075733766 -0.0020686726 0.073939465 -0.24293315 -0.038387876 0.22025359 0.28787717 -0.14393999 0.17290962 -0.08790075 -0.24420686 0.021896826 -0.34459 0.1092673 0.39697036 -0.110561535 -0.32201827 0.17285083 0.43678588 0.13705097 0.06445 -0.4980587 -0.061041374 0.0064864005 0.16976842 0.103051275 0.44168034 -0.0421818 0.34068093 0.4109882 0.044447858 0.0025816364 0.010971268 0.18482246 -0.12279008 -0.10953975 0.19617462 0.16673249 0.0050539332 0.22619364
of -0.12217328 0.028866308 -0.122893095 -0.08535572 -0.1376277 -0.18127888 -0.015275462 -0.3383552 -0.23903538 0.20107627 -0.14340687 -0.13535172 -0.1784408 -0.21746092 -0.039551325 0.08300212 0.09368866 0.12382421 0.033488575 0.1425275 -0.38166374 0.26508713 -0.3186274 -0.1344972 0.25809 0.2578229 0.023740534 -0.047668092 -0.30398604 0.02750097 0.15788114 -0.04189697 0.12341795 -0.36163786 -0.5269718 -0.21577355 0.09143867 -0.18393193 -0.01199588 -0.028845834 -0.19876404 -0.4507393 -0.28415695 -0.019943006 0.030582756 -0.10763903 -0.22897016 -0.2446865 -0.22885913 0.088883646 -0.14495845 -0.21915609 -0.13380618 0.14998072 0.313654 -0.029778875 -0.06972413 -0.049950004 0.25382906 -0.42403525 -0.2738904 -0.41680056 0.024759592 -0.048865918 -0.13693313 -0.37303197 0.3210354 0.107206345 0.4031897 -0.03551502 0.2580742 0.31710652 -0.0662566 0.13772224 -0.021542141 0.06413104 -0.26487726 0.25396478 0.30266267 -0.008326321 -0.40222168 -0.1692806 -0.20621014 -0.1252792 -0.17675406 -0.05057183 0.12263828 -0.051672425 0.05518389 -0.2877354 0.025886811 -0.11961571 0.055920053 -0.02914815 0.35903934 -0.1309688 0.08844959 0.09473604 0.38879973 -0.17123157
we -0.46373984 0.31644696 -0.15771006 -0.1263407 -0.011425891 -0.18280602 -0.10166419 -0.058804557 0.26089814 0.21455558 -0.3536427 -0.085247904 0.29115215 -0.23864268 0.12372915 -0.23127635 0.2573691 0.38149962 -0.29897422 0.07449422 -0.26688337 0.05357386 -0.08567572 0.13822776 -0.01158425 0.014635331 -0.27853772 -0.015221176 -0.3911821 0.25564593 -0.15426695 0.094066955 -0.4305297 -0.050341234 0.07460646 -0.33309045 -0.016199227 -0.015426489 0.22806771 -0.03782033 -0.067845725 -0.014976452 0.0268978 0.44382808 0.029617567 0.084693015 -0.099541254 -0.31292886 -0.49779028 0.21335359 -0.22433324 0.1279386 0.06216395 0.40071338 -0.009341249 0.13433565 0.09220693 0.20451325 -0.06930558 0.112006776 -0.12302516 0.08443699 0.3295321 0.16024528 -0.3949786 0.15021312 0.24602303 -0.22904962 0.10188676 -0.06586086 -0.042742528 -0.008710214 -0.49346426 -0.20367306 0.1656545 -0.284712 -0.3459845 -0.11200476 0.6620203 -0.14430988 -0.23793647 -0.18353811 -0.075303316 -0.21911986 -0.3001165 -0.19680542 0.43031925 -0.16001238 0.17899598 0.17652468 0.18723084 0.13830288 0.063245974 0.2828551 -0.17790031 0.23116277 0.35107437 0.031102102 0.24686046 -0.32809457
will -0.03422925 0.26807648 0.018550541 -0.12196224 0.049610667 -0.07226264 -0.28681186 -0.34693742 0.21196276 -0.075320736 -0.29096305 -0.008287141 0.08562289 0.24356864 0.19919959 -0.058969993 0.0031515579 0.57430136 -0.114415415 0.30087718 -0.2171482 0.4247742 -0.39334646 -0.11457224 0.1772549 0.5847699 -0.30577376 -0.049384784 -0.05901913 -0.61412793 -0.036349814 0.21777456 -0.06926872 0.15294565 -0.009765814 0.08603244 0.37409514 0.01227333 0.026712993 0.14339264 -0.08641281 -0.061710235 -0.47939447 0.21285473 -0.21454637 0.1445943 -0.063950785 -0.29121634 -0.19621384 0.055692587 -0.11567514 0.07077714 -0.1348742 -0.04447004 -0.049159754 -0.087414 -0.0006455498 -0.08565363 0.33517656 0.0872065 0.04321298 -0.053618886 0.012184575 0.077252164 0.07735584 -0.044225704 0.056124248 -0.32759175 0.31275758 0.13165511 0.22164683 -0.19541655 -0.4668789 0.1719736 0.30533788 -0.036325615 -0.42905712 -0.096669436 0.5799953 -0.07306599 0.403363 -0.41706178 -0.18325883 0.26797605 -0.03340807 -0.21937986 0.4022187 -0.08397322 0.30584162 0.18352683 0.005032059 -0.22514738 0.14012927 0.3527659 -0.0544883 -0.16494013 -0.037881486 -0.12605053 0.16214392 0.082562424
in -0.16059986 0.27898976 0.047663547 -0.14859188 -0.09099148 -0.36997265 -0.3299927 -0.13915016 0.060800534 0.42746618 -0.034628384 -0.2587411 0.1624217 0.08983153 -0.37761202 0.19057897 0.043825794 0.35720503 -0.005378399 0.12857063 -0.032007113 0.120750315 -0.18139777 -0.23993027 0.43496576 0.4592208 -0.13437997 0.071291916 -0.21636805 0.3908998 -0.3014256 0.037003342 0.03348159 -0.303548 -0.17763084 -0.17274474 -0.045925636 -0.1587744 0.1890572 -0.024650097 0.3120393 -0.322197 -0.23779017 0.16378814 -0.34973842 0.08591026 0.14262307 -0.30629072 -0.51118714 0.22864203 0.016307551 0.2359938 -0.030294802 0.15528142 0.060197096 -0.009646525 0.010426625 -0.012817238 0.31184164 -0.4008799 -0.27627176 -0.092870414 0.10718655 0.1602617 -0.098070554 -0.07548856 -0.074971475 -0.008378566 -0.03165332 -0.32070524 0.1269622 0.02256097 -0.18519938 0.097668946 -0.20439602 0.21257319 -0.14643726 0.5598688 0.38268402 -0.0673937 -0.14030062 -0.37255815 -0.3395215 0.14118682 -0.04898867 -0.11862123 0.020857375 0.13865234 0.0081530735 0.06915102 0.010032105 -0.27344373 0.08779839 -0.20101723 0.33136156 0.27271602 0.024106948 -0.07740186 0.3472979 -0.2566403
a -0.29012057 0.44234845 0.16022317 -0.25509593 -0.008130979 -0.19577089 -0.11032343 -0.45369035 -0.11183005 0.1615433 -0.41222614 -0.39609152 0.25395375 0.119218506 0.22547007 -0.09223397 0.06302716 0.013624806 0.22144489 -0.13962813 -0.19856104 0.1538828 0.08594154 -0.24631786 0.018337192 0.20177142 -0.24363773 -0.3058265 -0.09805873 -0.24654686 -0.43384483 0.117616616 0.11812958 -0.19850089 -0.11988838 -0.045403477 0.091091104 -0.15878539 0.2597056 -0.43009648 0.00064438715 -0.16348352 -0.13928707 0.32886073 -0.047459602 0.11736824 -0.8543951 -0.20724133 -0.26398507 0.10510026 0.029508669 -0.09259845 0.2811468 0.17789277 0.024042768 -0.62553185 -0.21413498 -0.45957372 0.029464776 -0.38531402 -0.38052377 -0.2694176 -0.06216725 -0.15499419 -0.24892731 0.46040565 0.05123262 -0.0101493485 0.4595449 -0.0025314994 -0.23399061 -0.12050713 -0.07926329 0.17443627 0.19848719 0.5383945 -0.22253105 0.05034235 -0.2860011 0.04965839 0.04632991 -0.1430412 -0.21949925 0.054586064 -0.09424408 -0.1861727 0.5074066 0.11665507 0.4988669 0.12581512 -0.1383947 0.016763007 -0.19695623 -0.18252341 0.08924544 0.2202184 0.6206225 -0.022348557 -0.2578793 0.04091475
for -0.020285992 0.25959516 -0.31670624 -0.1611037 0.03436499 -0.053746793 -0.19960141 -0.12218976 -0.12667404 -0.04149758 -0.21350215 -0.23357306 0.052216932 -0.36709213 -0.13852762 -0.20464933 0.12531316 0.17739327 0.06704366 0.18376309 -0.25072172 0.3574501 -0.12555994 -0.036287695 0.36346257 0.5803762 0.0011964677 0.045939226 -0.18328777 0.018825086 -0.11612138 -0.14438303 0.20798197 -0.043481704 -0.4354471 0.09042428 0.08921022 0.09142002 0.042046178 -0.07358955 0.08260185 -0.26362014 -0.013185838 0.22329651 -0.5150565 -0.25531045 -0.34531987 -0.29550806 -0.18157549 0.30496278 -0.054008294 -0.2154117 -0.2956587 -0.07912026 -0.23919074 -0.044483744 -0.3174115 -0.030545482 0.26564103 -0.39541346 0.2053972 0.056532934 -0.32337663 -0.18757974 -0.34322363 0.2506613 0.16481444 -0.053616397 0.2642121 -0.12826212 0.0071724495 0.3260691 -0.14072162 -0.023535049 0.3837219 -0.03662693 -0.1213865 -0.14223559 0.14484012 -0.05665566 -0.08966225 -0.23112121 -0.118214525 0.03835718 -0.054623716 -0.21171427 -0.09346976 0.052095518 0.13705373 0.44151834 0.45964178 -0.34921247 -0.07223142 -0.11457253 -0.29759574 -0.12901253 0.25846148 0.106219366 0.110265784 -0.2113134
our -0.56484985 0.33857563 -0.0074019204 -0.488879 -0.33255684 -0.15637966 -0.42166144 0.13916723 -0.003559112 0.19817762 -0.050913587 -0.11753452 0.22566316 -0.07033229 0.11676728 0.7076285 0.33800784 0.16171487 -0.06791002 0.41118547 -0.5662436 0.29599613 -0.056279596 -0.2577442 0.23890512 -0.11059554 -0.15312782 0.11829066 -0.40700468 0.08756266 -0.30813724 0.23978767 -0.24574336 -0.014816816 -0.052167766 -0.07019826 -0.19520892 -0.1259541 0.23297513 0.27052325 -0.35648572 -0.09439077 0.069428034 -0.1772836 -0.108575016 -0.024084682 -0.25796276 -0.12556152 -0.38585418 0.20957622 -0.56246424 0.03409273 -0.10713829 -0.013323672 -0.119465016 -0.17357208 0.009056804 0.062229663 -0.009016938 0.2625309 0.107377455 -0.1267148 -0.0027946348 -0.19569187 -0.23004797 0.107270375 0.4103432 0.270108 0.5081751 0.3056275 0.0127113275 0.062045883 -0.18408737 -0.12532286 0.37528843 0.11584928 -0.024896674 0.21039191 0.5267531 0.3864577 0.034477282 -0.09113828 -0.15522584 -0.22803582 -0.34641945 0.122944094 0.22376117 0.19228742 -0.21053426 0.050163645 -0.13966952 -0.2696482 0.14228754 0.021009274 -0.16286123 -0.022492662 0.27722266 -0.17438129 0.26200265 0.15038678
that -0.47029188 0.21127981 0.10954517 -0.1898649 -0.049707286 0.18165092 -0.2825876 -0.15727772 -0.22353107 -0.2177836 -0.012417167 0.055406798 0.3112683 0.2224114 0.07313721 0.23984426 0.24596716 0.25422224 -0.32032236 -0.046458263 -0.27173233 0.55692655 0.302115 0.1290474 -0.18838456 0.32540473 -0.27255604 -0.09791422 0.0021646593 -0.06876636 0.019167548 0.34223017 0.07470395 -0.16466752 -0.18819132 -0.7413076 0.26469737 -0.24876384 0.12919687 -0.1872053 -0.14308731 -0.039678257 0.024799312 0.44023854 -0.22480467 -0.10310032 -0.04496656 -0.055290174 0.1371431 0.19208756 -0.038755435 0.0017029983 -0.27639982 0.04321698 0.2197693 0.020198109 -0.19356658 -0.33839813 0.06362775 0.023238115 -0.5505149 -0.3347363 0.3313187 -0.07161422 -0.22670123 0.14636056 -0.1586226 0.07549285 0.43572342 -0.41313925 0.038386498 0.082375124 -0.020064468 -0.1185343 -0.038320407 -0.009588881 -0.27555814 0.07188576 0.6762206 0.23694952 -0.10586805 -0.12699264 0.0448503 -0.25910032 -0.09534339 0.24715652 0.3117691 -0.020998212 0.019079594 0.44353732 0.48874143 -0.5365116 -0.1714351 0.048542235 -0.14138556 -0.24138835 0.3605964 0.08982074 0.1158299 -0.047165304
is -0.16968657 0.50859463 -0.18610558 -0.43545774 -0.26772875 0.008748728 -0.2289817 -0.26235715 -0.37700942 0.28023526 0.0012960882 -0.30263078 -0.07327387 -0.22518085 0.25432628 0.006999334 -0.048430353 0.24679124 -0.43624666 -0.2536553 -0.39572895 -0.09409353 -0.22461532 -0.09470842 0.01096641 -0.06944827 -0.07873687 0.43460143 -0.21014039 0.07628488 -0.23629348 0.26961908 0.28280115 -0.07327099 -0.05343031 -0.4020035 -0.19265538 -0.21180731 -0.011396584 0.47556138 -0.024388442 -0.3696496 -0.30491892 0.4188093 -0.364822 -0.055081762 -0.15699323 0.10840006 -0.42749667 0.067102075 -0.33644196 -0.44995973 -0.14593041 0.49550205 0.16317588 -0.3321974 -0.3862498 -0.28927982 -0.05672051 -0.20388466 -0.6077985 -0.1553393 -0.11598283 -0.44345132 0.04314239 0.39132226 -0.21080996 0.13965413 0.34187594 -0.02431874 -0.31546995 0.105908796 0.017407317 -0.31838158 -0.022969373 0.037407696 -0.33602342 -0.08807997 0.4014853 -0.05529287 -0.094100766 0.038571477 -0.25750178 -0.011398899 -0.31740963 -0.29332098 0.5767163 0.11169561 0.29829076 0.13708134 0.20251209 -0.042309117 0.0066032894 -0.06809912 0.1363024 -0.21608563 -0.45567784 -0.3867152 0.025137324 -0.037694074
on -0.31665027 0.18785852 -0.2535187 0.035663225 -0.14426897 -0.110904 0.14553705 -0.2887299 -0.12924418 0.13074388 0.26844496 0.1376175 -0.018227452 0.24568608 0.06841649 -0.22094162 0.010836959 0.048226945 0.20732741 -0.059155833 -0.19579494 0.116628684 -0.01729137 -0.08939668 0.38059852 0.46496272 0.06959956 -0.141837 -0.6078759 0.017676575 -0.12905222 0.15372531 -0.08304824 -0.15793872 -0.3925104 -0.43824282 0.0946271 -0.37999493 -0.3824637 0.069778524 -0.08496452 -0.2150422 -0.46309805 0.37851495 0.05207663 -0.034052473 -0.49899295 -0.53420544 -0.28406692 0.5000948 -0.049139757 0.16498812 -0.28576547 0.004605138 -0.13269 0.054638244 0.17238533 0.08073696 0.15647364 -0.42286563 -0.39611092 0.07886595 0.14456022 -0.47173822 -0.21138525 0.04881678 0.2165831 -0.50952005 -0.04618463 -0.17082815 0.102424935 -0.27370533 -0.18365417 0.07613836 0.12621322 0.44827121 -0.12121759 0.18043973 0.1689794 -0.2601109 -0.43517023 -0.05255622 -0.02668367 0.33076903 0.30178192 0.10848757 0.21234633 -0.16074336 0.12901558 0.12546396 0.33072454 -0.25079522 0.17419136 0.018859835 -0.1612321 -0.12797259 -0.18525247 -0.21337858 -0.10984121 0.074245036
be -0.17101684 0.7283314 -0.06740821 -0.3590126 -0.042252984 -0.3291513 0.14937727 -0.3385918 -0.14443977 0.103211835 0.288047 -0.18893528 0.36058572 0.026117885 0.02460498 0.070746526 -0.60129076 0.019356394 -0.18964934 -0.18156427 -0.035454664 0.14220132 0.27673382 0.075040035 0.028176626 -0.007586027 0.30408993 0.40304923 -0.2725616 0.07961756 -0.5016321 0.5555857 -0.0072798687 0.12148244 -0.11209381 -0.20901549 -0.046872903 -0.12059508 0.15088986 -0.06889104 0.4061791 -0.47222885 0.37591454 0.8232769 -0.38091528 0.26492938 0.036475483 0.21206428 -0.5144143 -0.17847657 0.24210292 0.46311212 -0.22782445 0.47598717 0.32130164 -0.33359775 0.17279968 -0.13826647 -0.0056257523 -0.0752955 0.28113273 -0.09753752 -0.16239339 -0.27366778 -0.26625267 -0.05076071 0.0005495092 -0.019986922 0.4828896 0.06610605 0.09692899 0.10181615 -0.038354687 -0.12307851 0.24262802 -0.36618993 -0.32144016 -0.61043155 0.21452017 0.46693406 -0.33319393 -0.6526306 0.21127678 0.04905258 -0.028677564 0.24171053 0.41783813 -0.38405892 0.44151458 0.02198473 0.39873815 -0.050108995 -0.11451639 -0.26481757 -0.020299299 -0.06620206 0.11538763 -0.23225187 0.13887408 -0.14887805
have -0.38271475 0.25497913 0.18874423 -0.5683787 -0.36271587 -0.42920357 -0.16411032 -0.41937327 -0.17964157 0.364209 -0.03472046 0.006989426 0.105438754 -0.0037972583 -0.069189034 -0.024327425 -0.40760845 0.2750902 -0.5662189 0.34405106 -0.27173615 0.22721204 0.14438662 0.36177033 0.5702926 0.39344445 0.110287756 0.35950026 -0.35290805 -0.25094467 -0.5164418 0.32974067 0.265184 0.13841161 0.09104024 -0.18321946 0.084551625 -0.07578371 0.2770583 -0.47593 0.072541796 0.07432108 0.16431327 0.49982813 -0.37977788 0.33525327 -0.034454875 0.1490948 -0.33328757 0.026073813 -0.26033518 0.5118194 0.17486516 -0.33896405 0.21008223 0.059513193 0.30724746 -0.024918908 -0.3007438 0.10166165 -0.15088512 -0.06524698 -0.06960899 -0.50390834 -0.12521195 -0.2737022 -0.094869845 0.4020129 0.16545965 -0.16621298 0.01151294 0.9521819 -0.016204108 -0.23873058 0.17177698 -0.33979648 -0.2588743 0.10426914 0.33692724 -0.517186 -0.00010718255 0.016711028 0.5538086 0.053741664 -0.06823165 0.316886 -0.30383107 0.25750402 -0.14641401 0.36839068 0.27184287 -0.30027932 0.2718005 0.20395266 0.15664473 0.41746393 0.11500766 -0.04837988 0.028897053 -0.25172445
with -0.11233722 -0.0146050155 0.3460974 0.05693292 0.35888782 -0.126404 -0.114830315 -0.14797887 -0.31523898 -0.16374834 -0.19786239 -0.19357945 0.23422474 0.18990481 -0.00014772576 -0.18551384 -0.19036397 0.36679226 0.21538647 0.02760599 -0.1652115 0.22716033 0.10835298 0.29260987 0.21511032 0.49339974 0.36721867 0.19616534 -0.55554694 0.14742176 -0.13207738 0.036680076 0.05373136 -0.11714023 -0.23088859 0.13944682 0.09245054 0.12341315 0.0573771 -0.07227177 -0.040305242 -0.035290573 -0.05700581 0.1664652 -0.39060527 -0.23595284 -0.5122475 -0.19648534 -0.38298616 0.2213981 0.074369945 0.041626573 -0.35082585 0.027026128 -0.17438301 0.19186674 0.2745458 0.022802517 -0.21452755 -0.15701146 -0.13301435 -0.35424557 -0.34870228 -0.33816648 -0.051986497 -0.14683397 0.021209696 -0.18319018 0.457673 -0.14023681 0.20440021 0.2451712 -0.6071247 -0.18612146 -0.055202622 0.033180248 -0.32241398 -0.16359231 0.18625982 0.009802234 0.0269317 -0.3480097 -0.24296676 -0.19565679 0.1633854 0.03784317 0.060417924 0.07948237 0.0019524571 0.39698073 0.10979963 0.042830925 -0.49980396 -0.12722361 -0.23985724 0.07869357 0.19518091 -0.1937449 0.17910443 -0.12937185
by 0.03694138 0.16499098 -0.257916 -0.11547013 0.05822237 -0.11664705 -0.08914922 -0.33626166 -0.15322964 0.0067579024 0.02114624 -0.110682085 -0.06133332 -0.030688165 -0.26112714 -0.07938251 -0.22324194 0.16567375 -0.19822955 0.08067352 0.038604446 0.282283 0.069131784 0.11684703 0.35479212 0.43945828 0.122824535 0.09361687 -0.47037336 0.057479486 -0.1201517 0.10747136 0.16813768 -0.114212975 -0.39793342 -0.104733214 -0.007979821 -0.3974278 0.1312379 0.12093589 0.20645629 0.25834176 0.10105138 0.29021856 -0.084948145 0.23819397 0.06609531 -0.18414944 -0.43934515 0.20411739 -0.31939548 -0.23721445 -0.185389 0.08279523 -0.11987107 -0.0040345676 0.0023374825 0.07063312 -0.05466175 -0.4100427 -0.34799987 -0.06653986 0.05568566 -0.18060836 -0.050401967 -0.35345718 0.18213679 0.18684477 0.24956943 -0.26619416 0.017602727 0.15597834 -0.24985681 0.20682803 0.37937352 0.099450424 -0.34756622 -0.06584399 0.016212195 -0.36090118 -0.14360264 -0.3327639 0.1413872 0.110653594 0.26907673 0.030943148 -0.028392807 0.29098976 0.3938156 0.06776459 0.18464188 -0.08148017 0.07011323 0.21721748 0.04093933 0.10884678 0.3510104 -0.06024886 0.24344535 0.16865386
are -0.3249809 0.39915642 -0.13451459 -0.053531278 -0.18486714 -0.24286999 -0.3283406 -0.42114106 -0.10907432 0.09362711 0.28005734 -0.36088532 -0.35636112 -0.2373334 -0.39069146 0.14050715 -0.29304302 0.11043406 -0.25178352 -0.04975085 -0.2583333 -0.15086503 0.15669471 0.018153762 0.40802965 0.29113635 -0.24896762 0.19684961 -0.2955971 0.3017819 -0.2653718 0.2596207 -0.29012603 -0.3676428 0.017870003 -0.4325668 0.26286992 -0.28124255 -0.02845711 0.23070382 -0.23196019 -0.23449482 -0.24657841 0.37207022 -0.66064304 0.056231044 0.33104733 0.15475257 -0.22131085 0.040377185 -0.06899673 0.054342728 0.25270912 -0.107465565 0.3678052 -0.086226724 0.115248464 -0.44739103 0.12475234 0.114119336 -0.33443782 0.17511196 -0.2945287 -0.4949409 0.13152991 0.33337384 -0.008722034 0.09117802 0.5489636 -0.3283111 -0.34694833 -0.16421299 -0.22469851 -0.36728832 -0.030526266 -0.20691441 -0.81224185 -0.28860092 0.2063703 -0.4867222 -0.45283923 -0.018832076 0.22724506 0.047403604 0.15360141 0.17940179 0.26011336 0.25644916 0.14891699 -0.0145818405 0.08742354 -0.24815913 -0.12796459 -0.07514829 0.27568433 -0.34362513 -0.32518354 -0.22142217 0.07450263 -0.115708925
new -0.15382206 0.488281 -0.00040889916 -0.21264511 0.22194567 -0.23667777 -0.11064585 -0.1011851 0.33976647 0.3034677 -0.049438372 -0.63742775 -0.383855 0.22050524 0.25602558 -0.23350097 -0.06413773 0.23723987 -0.20858295 -0.005035886 -0.07122051 0.16143496 -0.19435246 0.072595164 0.112943284 0.70782584 -0.15108813 -0.07959684 -0.1809758 -0.25343728 -0.24596481 -0.23697425 0.19146274 0.19426861 0.031370047 0.1863138 0.2154491 -0.26722965 0.27300853 -0.28978017 0.19753067 -0.32083318 0.16242306 0.29313916 -0.35841888 -0.080994755 -0.24488212 -0.010565929 -0.20210384 0.19202796 0.19741826 0.40015426 -0.13453688 0.1421612 0.17712341 0.18658859 -0.25103158 -0.28920656 0.17673226 -0.2922729 -0.17161883 -0.17817037 0.12432967 0.20979992 -0.24387951 0.40808973 0.3168157 -0.031415883 0.055818364 0.44322512 0.11050066 -0.19719566 -0.1308954 0.41339955 0.38291183 -0.113955855 -0.39689136 -0.072745435 -0.1516045 -0.32017973 0.038977984 0.00063950696 -0.114229046 -0.16131859 0.093185365 0.22105207 0.41100565 0.32800683 -0.061376754 0.018488424 0.037693217 -0.18817729 0.016090214 0.28924897 -0.3408883 0.01184504 0.17473185 -0.26353595 0.1045554 -0.043847825
as -0.19393498 -0.069865495 0.043709897 -0.44436306 -0.4171668 -0.1390679 -0.22283873 0.08595598 -0.15171938 0.19841875 -0.25699267 -0.37764567 -0.60652393 0.052504394 0.08715758 -0.13815896 -0.09398193 -0.112876914 -0.017948855 0.15716098 -0.30414575 -0.1933621 0.08532682 -0.5383513 -0.03504388 0.4783367 -0.09833007 -0.5042122 -0.5183866 -0.053235065 -0.039974023 -0.06795337 0.27359566 -0.11633057 -0.5266771 -0.14918846 -0.18185858 0.09684477 -0.15927136 -0.13970757 -0.3806282 0.049321406 -0.4489668 0.5627691 0.16213715 -0.32281366 -0.14249748 -0.11970326 0.056138802 -0.2722282 0.23721053 0.36945003 0.1688707 0.72021085 -0.1534006 -0.36802882 0.26265877 -0.5777176 -0.08250411 -0.07710141 -0.42394188 -0.13688844 0.108852096 0.20929563 -0.7121125 -0.20292856 0.07518982 0.3443074 0.2662252 -0.13647208 0.49276197 0.21465571 -0.4036458 -0.3072668 -0.07165664 -0.027391987 -0.07714762 -0.314797 0.6615185 -0.14745091 0.20827827 -0.18633303 0.12766303 0.007032899 0.18272544 -0.034901038 0.34588447 -0.1628106 0.26249176 0.26697648 0.06607024 -0.5262134 -0.16162294 0.24832354 0.20898108 0.16849004 0.0895831 -0.08886771 0.1772286 -0.16815342
more 0.052829135 0.006576341 -0.26006132 -0.07276436 0.29889166 -0.15509278 -0.09185452 -0.49957687 0.3116609 0.6223149 -0.32363936 0.12592334 -0.21444032 0.15506288 -0.09604856 0.2708897 -0.13256042 0.11251799 -0.17620008 -0.107937075 -0.16772003 0.12572302 -0.2729581 -0.13472559 -0.15230605 0.40716723 0.093991034 0.2965992 -0.66528547 0.040432774 0.2939672 0.21818547 0.19160889 0.3636336 0.18479703 -0.043679997 -0.3204838 0.03343906 -0.031942125 -0.049656145 -0.32162774 -0.28056195 -0.17851365 0.5921855 -0.057543326 -0.2048209 0.13361274 -0.058489982 -0.24142349 0.3673557 -0.108497426 0.11851359 -0.06258234 -0.10894014 -0.04860709 0.06618866 0.09837138 -0.57063943 -0.051487926 -0.20878421 -0.08263708 -0.19585435 -0.3566164 -0.19953728 -0.34163117 0.13261083 0.31796938 0.21307868 0.2247358 -0.24511553 0.07939663 -0.26898062 -0.41523895 -0.10221697 0.3218739 -0.05022823 -0.0003144144 0.18071581 0.3330009 -0.6360133 -0.117830046 -0.13993803 -0.47693107 -0.28202143 0.10295628 0.45005053 0.22817191 0.33990982 0.32241842 0.051648952 0.11597924 0.05709466 0.33150136 -0.05484491 -0.60149264 0.10852309 0.16708247 0.27756807 -0.106348455 0.13566859
it -0.48947445 0.26654777 -0.4640017 -0.13109274 -0.33901557 -0.00087387353 0.15198229 -0.046435077 0.0009902368 0.290783 -0.18899035 -0.037716053 0.01763937 -0.23531424 0.0319081 0.280949 -0.14324114 0.100977674 -0.4052215 0.038568553 -0.09613222 -0.0046666446 -0.05553447 -0.052701432 0.08664531 -0.0059667258 -0.24531783 0.12790687 -0.22907881 -0.17829704 -0.0055706315 0.05857609 0.10705376 -0.16045143 0.08605901 -0.26086047 0.15738627 -0.240281 0.15453665 -0.124782726 -0.13953058 -0.07459631 0.123896256 0.09272878 -0.11125343 0.040093478 0.28424063 -0.10280572 -0.6074136 0.013657982 -0.21728235 -0.12647876 0.018811082 0.11454499 0.18209589 -0.21157287 -0.123703204 -0.35905832 -0.2422847 -0.47199777 -0.104265906 -0.26675054 -0.024149999 -0.2924153 -0.29211405 -0.02790893 -0.06427564 0.01098801 0.18072252 -0.38268858 -0.20336938 0.42855257 0.121574625 0.13048841 0.26909134 0.07688259 -0.2858542 0.38755575 0.53051996 0.07683843 -0.120315656 -0.018687023 -0.11684895 -0.4596507 0.054949272 0.09654437 0.5703414 -0.032314934 0.6957714 0.24467698 0.21507521 -0.27096066 0.12508473 -0.10347229 -0.51457965 0.22414389 0.023706427 0.12836729 -0.18656707 -0.0058994032
their -0.09723163 0.2609698 -0.2048858 -0.07795753 -0.38519964 -0.5144701 -0.25864294 -0.19543102 -0.43151093 -0.22309525 -0.5044129 0.08259265 -0.21220487 -0.06456602 0.059907094 0.58568007 0.016483419 0.114086725 -0.0066895327 0.56476426 0.12125042 0.107117616 -0.29596648 -0.24981935 -0.09185055 0.26675767 0.010190495 0.16209501 -0.5339693 -0.14655036 -0.053678937 0.27038905 -0.1097415 -0.15407434 -0.27088654 0.0527224 -0.14248303 0.03136937 -0.0011328117 -0.14140889 -0.41957292 -0.22943941 0.05619752 0.24144264 -0.029894225 0.16225564 -0.1776925 -0.48252767 -0.24251698 -0.0021146797 -0.045713425 0.15503354 -0.2938732 -0.21856268 0.12094965 -0.10421038 -0.024645403 0.09442286 0.23505564 -0.066801816 0.4725986 -0.26485038 -0.16035384 -0.33616135 -0.48967746 -0.019709889 0.2217693 0.38240469 0.058143362 -0.14232893 -0.6628545 -0.07105714 -0.07240653 -0.34362018 0.3156956 -0.20100598 -0.18664594 0.09062214 0.48945644 -0.18784738 -0.096152335 -0.21262704 -0.0914305 0.026312055 0.2699863 0.39088088 0.53976536 0.17300078 -0.3312645 0.06837619 -0.12238324 -0.37634948 -0.028100098 0.07605628 -0.22497724 -0.34027892 0.48876423 0.4426203 -0.2712328 -0.28110498
people -0.16227645 0.048404515 0.100886956 -0.5343641 -0.14470711 -0.19198963 -0.27021018 0.087384276 0.2709738 -0.13239443 -0.08480036 0.3296264 0.15579279 0.025148686 -0.18317531 0.16715868 -0.29294854 0.33529103 0.0205202 -0.23423354 -0.14956798 -0.0089619 0.043222845 -0.35149384 0.13225022 0.40992087 -0.46852347 -0.27691633 -0.36283895 -0.08258274 0.60152584 0.55831444 0.43150422 -0.19933967 -0.1386606 0.10527127 -0.097966075 0.36939296 0.40080857 0.0640067 -0.09669142 -0.024080046 0.1794217 0.55537957 0.07068677 -0.059805762 -0.22294122 -0.183799 -0.6644464 0.11614024 0.20991133 0.26825482 -0.016600465 0.106806815 0.39807776 -0.4277938 -0.24097951 -0.15060012 0.0120057715 -0.7089478 -0.103041984 -0.063930504 0.036497153 -0.15024437 0.04686983 0.09980349 0.24793264 -0.2856811 -0.0209743 -0.119051255 -0.30517757 0.73927927 -0.30691805 -0.03734494 0.3568955 -0.061273597 -0.6814386 0.09767163 0.4279129 -0.10715646 -0.3361362 0.24943472 -0.33507955 -0.026307825 0.12972376 0.08170016 0.3817198 0.33963805 -0.025957905 0.044710252 -0.28106806 -0.10494136 -0.22629416 0.116426215 0.13042492 -0.4779395 0.68157595 0.008486249 0.095828585 -0.78382695
government -0.05782415 0.22517711 0.010153508 0.08670315 -0.12527934 0.29761758 -0.17796245 0.013264812 -0.21605675 -0.32724622 -0.18546362 -0.19956398 0.20324521 0.32396492 0.37413844 -0.16541404 -0.3639838 0.2313602 -0.108047694 0.013026935 -0.011647563 0.5678713 -0.28567556 -0.3613293 -0.33001962 0.07880369 -0.3006093 0.3417259 -0.22139525 0.2645368 -0.26819542 0.23530392 -0.03993764 -0.10103953 0.10234181 -0.29832682 0.290558 -0.0019573318 0.17896959 0.01984143 0.116282105 -0.0059822937 -0.21932596 0.46844125 0.051684786 -0.119148456 -0.34861133 -0.22332093 -0.5617464 -0.020708974 -0.5079753 0.3968573 0.01803428 0.14026755 0.03250548 0.2771834 0.12132696 -0.18848148 0.12040772 -0.62444276 0.25669956 -0.36039478 -0.13943787 -0.17806429 -0.35882467 -0.20010617 -0.15229188 0.053995434 0.27815774 -0.3368049 0.0024798783 0.066243395 0.016988996 0.39116618 0.16052902 -0.13575615 -0.31529328 0.10147753 0.1796631 -0.29787624 0.033128135 -0.16637465 -0.47584364 -0.29648736 -0.32254925 0.47719246 0.6400404 -0.08480777 0.11240145 0.042454503 0.44522822 -0.031941496 0.05662272 0.16469929 -0.021679044 0.30402517 0.18181726 -0.1589574 -0.042713463 -0.11066882
labour -0.202259 0.41102406 -0.5744917 0.12518746 -0.4489587 0.06997982 -0.30755877 -0.19097885 0.30962583 0.0012205552 -0.5252592 -0.03480707 0.027250307 -0.045132637 0.18495722 -0.07903254 0.124854 0.053756516 -0.23217869 0.1710269 -0.25223172 0.113277584 -0.21241987 -0.11996961 0.11771843 0.478677 0.059658885 0.17538217 -0.24620034 0.33755597 -0.0668145 0.18160088 -0.4422409 -0.39696413 -0.24829558 -0.43817434 0.33517283 -0.10527207 0.3565382 -0.018751131 0.049051553 0.285448 0.07830562 0.27181238 0.13444747 -0.1300381 -0.10664802 -0.043570317 -0.2583623 0.37972078 -0.4466616 0.22562405 0.088202454 0.51077175 -0.05295996 0.15562622 0.118109256 -0.2579963 -0.26031885 -0.38415036 -0.59671634 -0.14558446 0.14615285 -0.4055822 0.21966752 -0.040846415 -0.023651375 -0.09325086 0.13873033 -0.6031642 -0.12414477 -0.06302815 0.025851885 0.37169728 0.16185902 0.09617713 -0.2126557 -0.04483527 0.28093302 -0.09407151 -0.1693026 0.005505657 0.35427377 -0.1386525 -0.254383 -0.2841225 0.38035908 0.09977881 0.12697285 0.27445582 -0.06291266 0.3228031 0.17862155 0.18934003 -0.12908903 0.10788818 0.5273465 -0.11587561 0.07083821 -0.1295885
this -0.44069538 0.34907535 -0.11328786 -0.2574743 -0.32387385 -0.034876257 0.04749735 -0.1912634 0.2186613 -0.014216253 -0.27747837 -0.45580807 -0.04565725 0.05329602 0.22873318 0.11362579 -0.0214155 0.16738848 -0.106063634 0.089917 -0.4436055 0.21510313 0.36604437 0.124246515 -0.20699103 -0.25718924 0.026653025 -0.10993379 -0.27375737 -0.1590484 -0.28406876 0.13458708 -0.05844369 -0.17411733 -0.18793805 -0.06990557 -0.054287642 -0.15239052 0.32523695 -0.02222061 0.014093599 0.004602336 -0.19394001 0.1079166 -0.14102559 0.039940678 -0.40429825 -0.053578027 -0.8155341 0.12904039 -0.3871916 -0.115238406 0.010214787 -0.07921762 -0.030000066 -0.12086904 0.065994546 -0.19044915 -0.040047042 -0.47030115 -0.09277779 -0.23179276 -0.076093 -0.056165572 -0.22886316 -0.17330013 -0.005774928 -0.23521443 0.33420354 -0.02348868 0.17355292 -0.056338973 -0.07419323 0.26813617 0.14959733 0.044121604 -0.21598443 0.1467925 0.3747009 0.138605 -0.005649526 0.10305203 0.053313937 -0.5511724 -0.07500067 0.112147495 0.78723204 0.16345385 0.4471967 0.17827046 0.3409577 -0.22138819 0.23698752 -0.15625776 -0.065108456 -0.17642474 0.33123827 -0.028415497 0.09334398 -0.01989696
has -0.13075337 0.2841787 0.069898896 -0.6888202 -0.13548544 -0.25366914 -0.4476745 -0.31844014 -0.34467098 0.28896052 -0.29834166 -0.24439384 0.15674682 0.045207605 0.14086457 -0.16130197 -0.33553594 0.31263965 -0.6452849 0.004217042 -0.23611997 0.12290585 -0.28240204 0.32201168 0.5406395 0.56636536 0.25725812 0.6680428 -0.18070798 -0.11562539 -0.55635697 0.33848113 0.7664538 0.3439824 0.07980677 -0.06208236 -0.26199517 -0.07872853 0.36436158 -0.34481344 0.1593481 -0.016869703 0.10230955 0.4030068 -0.07024117 0.033517234 -0.4776427 -0.07721937 -0.62058395 -0.06176037 -0.76289076 0.010305226 -0.18824753 0.14829202 -0.14996871 -0.32351553 0.13747992 0.10336555 -0.3892117 -0.2259768 -0.42672652 -0.15346262 0.05856178 -0.5038484 -0.033399764 -0.3563743 -0.27380762 0.3325158 0.22906953 0.16393003 -0.036052965 0.8598702 0.18590018 -0.37006867 0.2482804 0.16899206 -0.29467624 -0.0016391716 0.16976057 -0.52183765 0.14481643 0.16214779 0.30526826 0.21637292 -0.58821684 -0.2896633 -0.24553302 0.16003044 0.01831322 0.30767924 0.058790512 0.08754537 0.3486688 0.20148392 0.3554805 0.5407322 -0.111802466 -0.5013806 0.11386676 0.14293581
which -0.18515459 0.24657339 -0.40118626 -0.087216556 -0.24308114 -0.029628387 0.12178411 0.013594598 -0.12340871 -0.06444436 0.042196695 -0.13921997 -0.05851815 0.21705306 0.21144557 0.16281743 -0.0804814 0.033020124 -0.15791167 0.11130986 -0.34794423 0.24944837 0.12441016 0.014100743 -0.15182178 0.42363402 0.04319888 -0.052671354 -0.12262936 0.109178774 -0.13676979 0.036440644 -0.09458612 -0.08901926 -0.20934185 -0.0679205 -0.030977279 0.05982911 0.12603414 -0.08983386 0.26029757 -0.21890086 0.13331814 0.22319435 0.060107093 0.05550727 -0.16276857 0.09789953 -0.23966116 0.29950568 -0.12128255 0.24006741 0.1857941 -0.08901926 0.1336348 0.17008689 -0.33057025 -0.12102228 -0.003496154 -0.40484297 -0.23518021 -0.25278866 0.14064497 0.047205973 -0.31171855 -0.0026133147 0.37354416 -0.073201425 0.28020874 -0.070771724 0.586794 0.10492775 -0.31114838 0.1456788 0.24047005 0.06420728 -0.2856358 0.059004363 0.5392241 0.16600852 -0.17138001 -0.21243075 0.359427 -0.31576252 0.010954666 0.19051778 0.3313967 0.46119392 -0.10502275 0.28914338 0.217099 -0.41518682 -0.10574067 -0.15877716 -0.05116771 0.0903457 0.38178593 0.039844226 0.14168058 -0.037769698
from 0.0682834 0.19284175 -0.2516746 -0.13532536 0.070893675 -0.11671064 0.034227867 -0.25045776 -0.22617775 -0.0051653627 0.21538018 0.10688083 0.1395092 0.05663134 -0.2060531 0.23522648 -0.4075115 0.22918722 -0.19523704 0.27456674 -0.14144179 0.24265768 -0.10071149 -0.13855425 0.16866675 0.44383842 0.23766571 0.20597923 -0.42097947 0.009310939 -0.19980946 0.058353048 0.060184684 -0.29756323 -0.076146014 -0.10092417 0.26464945 -0.37512818 0.29995176 -0.20621224 -0.22634554 0.1090281 0.14830053 0.10709787 -0.21048741 -0.0342045 0.25769505 -0.17414896 -0.26388028 0.25483015 -0.15936443 -0.19683276 -0.2952214 0.5275537 -0.0732292 0.078177914 -0.078528926 0.42065537 0.18431972 -0.64684105 -0.28033924 -0.34238505 0.02305084 -0.0046364707 0.015705302 -0.11489857 0.29540306 0.15319298 0.4637317 -0.05747238 -0.037670907 0.18616195 -0.0512688 -0.042787485 0.36895812 -0.05075788 -0.26704475 -0.059949663 -0.018307427 -0.3755359 0.014498681 -0.3969233 0.15532029 0.012431012 0.027047854 -0.012348531 -0.0683427 0.15676855 0.009243902 -0.10465189 0.083995804 -0.12429743 -0.07208068 -0.022174751 0.0028733711 -0.35115078 0.2589489 -0.12398133 0.12784606 0.19619894
they -0.042366788 0.29466644 -0.56448954 -0.0064058853 0.16135675 -0.29945895 -0.0802938 -0.03601094 -0.10706161 -0.0890629 -0.37292415 0.030899977 0.17516908 0.13544713 0.22784634 0.10629871 -0.23322491 0.13380027 -0.29897186 0.02044886 0.08065041 0.28482413 -0.26826867 -0.08568321 -0.13507307 0.15197404 -0.3368938 0.32080778 -0.5651582 0.013345419 -0.14759274 0.37592557 -0.13005441 0.09206622 0.2760254 -0.47701678 0.14046314 -0.07189424 0.121953666 0.07329844 -0.16496173 -0.33811438 -0.15828091 0.8740571 -0.04191232 0.38039374 0.15277797 0.018520057 -0.44123206 0.034891833 0.48944762 0.14473757 0.07156734 0.29044452 0.3854881 -0.040717833 -0.20918085 0.069166906 -0.09565142 -0.26121086 -0.03927582 -0.19718559 0.12976442 -0.05307499 -0.3545515 0.1905966 -0.036916368 0.26892954 -0.063599624 -0.30578613 -0.48227072 0.14401262 -0.6293045 -0.14278212 0.13258801 -0.42819807 -0.34119862 0.029254334 0.7449698 -0.25635332 -0.16549696 -0.21617357 0.10111663 -0.099455304 0.27604085 0.016732033 0.37871447 0.14587292 -0.009475873 0.2351369 0.039350916 -0.13644323 -0.37207726 -0.29021713 -0.24333267 0.0013997001 0.46001223 0.46109423 -0.39727774 -0.36945692
not -0.16464074 0.29126778 0.10995122 0.18435459 -0.05398729 -0.15028507 0.01839168 0.027107682 0.21796347 0.028756205 -0.1528085 0.012237092 -0.25882092 -0.11042217 0.39420977 0.35657376 -0.33858392 -0.09700409 0.26779044 0.042174663 -0.6573098 -0.007960914 0.03610754 -0.18043709 -0.170685 0.2186126 0.10180755 0.366541 -0.2624663 0.036572203 0.061248958 -0.059235644 0.07486147 -0.38507506 -0.015609191 -0.265896 0.6077567 -0.2990307 -0.050856832 0.17564037 -0.10722901 -0.10258705 0.022311414 0.4676525 -0.32741773 -0.14566688 0.21316916 -0.171903 -0.6213063 0.16189694 0.11840961 0.285895 -0.13360687 0.34424877 0.3547623 -0.118857384 0.17334068 -0.26136482 -0.21154945 -0.28548393 -0.2606188 -0.29762542 0.44132566 -0.31378073 -0.37432396 -0.21262424 0.21539229 0.03739313 -0.25911632 -0.33510187 -0.26418322 0.40722623 -0.09394561 0.13771383 -0.054066956 0.066376366 0.009957056 0.34295207 0.56440526 0.07826123 0.11072026 -0.44748166 -0.09469458 -0.10232361 0.13544317 0.010853727 0.6820269 -0.377491 0.16998923 0.7019255 0.360071 -0.18347356 0.021004783 -0.13244182 -0.15694578 -0.031871703 0.030891152 0.1931545 0.044034462 -0.064996526
all -0.30186754 0.025359144 0.53171545 -0.20272698 0.06442343 -0.21453463 -0.4817195 -0.19029413 0.19963081 0.10731062 -0.08251935 -0.29824156 -0.1945895 0.24402063 -0.1929481 0.1867723 -0.11912461 0.105953805 0.17901069 0.23546521 -0.26550087 0.29452372 -0.028685238 -0.3137162 0.29222533 -0.03544668 0.016201656 0.01964249 -0.3691259 -0.06069198 -0.18771176 0.45590115 -0.0036628305 0.042479336 -0.30675554 -0.14732946 0.086111695 -0.30479458 -0.019755075 0.03341638 -0.15040232 -0.05449219 0.12930727 0.26054156 -0.3095349 0.22719884 0.13014409 0.019560274 -0.1021628 -0.00013192656 -0.21093759 -0.044657595 -0.42337117 0.08529935 0.11590772 0.11749384 -0.13657518 0.13680042 -0.09129364 0.061062083 -0.4427326 -0.28837466 0.25814837 0.18504746 -0.11241265 -0.03234764 0.2292142 0.07357896 0.31156623 -0.25566944 -0.07112215 -0.14448662 0.15657188 -0.26155636 0.15399826 -0.09271487 -0.1354658 0.064476095 0.6413344 -0.02319616 -0.26126844 -0.21158025 0.26558328 -0.112941995 -0.023141822 0.12196494 0.43735588 0.093101956 -0.14623497 -0.022408497 0.36563137 -0.2124409 -0.14067446 0.027299425 -0.2251349 -0.44686478 0.05955293 0.005759823 0.13698988 -0.26596135
at -0.15257463 0.2794072 -0.03192073 0.09849997 -0.06378177 0.22196382 -0.04023384 0.1058739 -0.6143806 -0.35624915 -0.07899875 -0.47148502 -0.100735486 0.04151304 -0.2813384 0.035261393 -0.41041774 0.46489376 0.1727415 -0.12672947 -0.21807873 0.18745388 -0.4203186 -0.21776247 0.3065728 -0.06796175 -0.050080556 -0.13163342 -0.7266353 0.01139154 -0.4684104 0.50907624 -0.29279396 0.29503515 -0.5116625 0.01959179 0.1598851 0.03744744 0.42526424 0.064233035 -0.575764 0.052626964 -0.1828254 0.35303152 -0.11346746 0.33281338 -0.60305077 0.37508184 -0.4403302 -0.10505525 0.10052711 -0.47789901 -0.05875561 0.30352494 -0.10794509 0.4825032 0.49434927 0.22658549 -0.15411957 -0.3196005 -0.2547706 0.043677177 -0.14708313 0.092489004 -0.016711004 -0.12983178 0.29141763 0.33587712 0.6674412 -0.6114825 -0.4050618 -0.004277401 -0.51377094 0.47382268 -0.091596246 0.47683752 0.14644977 -0.03183537 0.64083594 0.007925907 -0.20808694 -0.0706071 -0.23488718 0.15537688 0.417997 0.021327415 0.22692734 0.3538632 0.35153463 -0.2352832 0.7042227 -0.34571502 0.19856332 0.02474402 0.017165042 0.12537116 -0.22356714 0.09713855 -0.24385786 -0.32345816
an -0.13556263 0.3558693 -0.12592284 -0.66869634 -0.0915747 -0.10492117 -0.59200966 -0.18969527 -0.053837854 0.36892778 -0.010230184 -0.22411975 0.06888015 -0.4205313 0.19271366 0.14177886 -0.18952413 -0.31532037 -0.11219342 0.23956187 0.07230289 -0.39938888 -0.2826069 -0.14832929 -0.09763066 0.13682346 0.06585937 -0.2648109 -0.19900793 -0.17667224 -0.2998858 0.25772187 0.0903475 0.07130653 -0.422555 0.07897107 -0.10382169 -0.01499808 -0.08307103 -0.34105954 0.5047515 -0.5754549 -0.20565908 0.29884994 0.12505607 0.08837058 -0.5183207 -0.1046059 -0.13107415 0.28853205 0.18198492 -0.28987283 -0.15731394 0.12936097 -0.3100993 -0.60479534 -0.12789468 -0.32986546 0.009764112 -0.23460276 -0.39135632 -0.048468795 0.026662532 0.3183165 -0.26232162 0.48737457 0.4662283 0.037445154 0.6589712 0.15225841 0.13334979 0.046054386 0.29769868 0.29215866 0.5236087 0.42789042 -0.12408248 -0.0867841 0.060468726 -0.2251678 0.19018334 -0.5563372 -0.28685048 0.11987134 0.4731174 0.21879505 0.7063191 0.4632313 0.54337573 0.29197797 -0.12696105 0.1388995 0.19848527 0.011208531 -0.18680519 0.19678028 0.4693478 0.6623732 -0.23909222 0.3511754
local -0.34257787 -0.010956363 -0.12473685 -0.11029463 -0.0035515376 -0.47751123 -0.043672834 -0.48723263 0.2037572 0.18568206 -0.44794458 -0.26265857 -0.012619513 0.43411547 0.026043171 -0.16826166 -0.41386074 0.45999175 -0.31506783 0.46294466 -0.11601517 0.24595705 -0.39018622 -0.14628217 -0.09222737 0.0031224699 0.26378506 -0.0034337305 -0.15409891 0.010300593 0.09554974 0.5150706 0.12772359 0.02720837 -0.0442149 -0.39462215 -0.040225986 -0.60061026 -0.46627742 0.15888348 -0.057662103 -0.3380341 -0.11036276 0.6075173 0.21048857 0.106834486 -0.0041878168 -0.4276537 -0.19589254 -0.24997148 -0.23156314 0.6167895 0.06741335 -0.2822228 0.0728307 0.37912598 -0.46777356 -0.54064333 -0.12397118 -0.26447695 -0.033241607 -0.28246176 -0.3605103 -0.35210732 -0.24144465 -0.3232168 0.24834739 0.40581194 0.1364053 -0.51363343 0.12421824 -0.6695397 -0.47266027 0.5839588 0.095439866 -0.060627453 -0.69151616 0.07922253 0.27365828 0.38402972 -0.15374835 -0.09236531 -0.027908467 -0.25258866 0.28248692 0.21993184 0.4366093 0.19211845 -0.54084253 0.18659711 0.0038795825 0.1944603 -0.31791547 -0.13975577 -0.23211895 -0.34846297 0.36947778 -0.3220738 -0.055888645 0.58301544
work -0.40368307 0.115078054 0.17674825 0.18175216 0.17628305 -0.27888644 -0.10197518 0.31400803 0.060608555 0.46949956 -0.29506207 -0.15343212 -0.046434674 0.107298665 -0.060240325 -0.073393494 -0.036591616 0.32213745 0.30927193 -0.3757444 -0.44313017 0.22245611 0.16998683 0.12928507 0.31580782 0.49637985 0.22339447 0.0030680986 -0.24924701 -0.10339451 0.11578021 0.12931523 -0.10875266 -0.30180824 0.061877385 -0.057377458 -0.3371166 0.41924652 0.34943536 -0.52784145 -0.14619489 -0.12356391 -0.012433966 0.022381388 -0.056881372 0.2230154 -0.010866115 -0.09545746 -0.16081576 0.23864248 -0.3008797 0.49794653 -0.1784234 -0.27455667 0.068429805 -0.09034681 0.099061824 -0.18342319 -0.19233379 -0.046777107 -0.15185995 -0.17417775 -0.026630802 -0.19579826 -0.16319351 -0.24753097 0.050832447 -0.31845143 0.67436546 -0.2800349 0.17255555 -0.028057352 -0.023489555 0.22871356 0.44050664 -0.14212364 -0.6599581 -0.17890619 0.42659494 0.038394127 -0.07137261 -0.20909259 -0.3490123 0.1291414 0.25804004 -0.07644191 0.38542452 0.070138134 0.31947067 0.3965307 -0.2230178 -0.06159718 -0.13143885 0.009306544 -0.4861328 -0.078463644 0.0012347127 -0.095724225 0.12865715 -0.2814889
britain -0.3290804 0.36397985 -0.3858589 -0.28915972 -0.40269506 0.16223826 -0.1421683 -0.10953184 -0.31105733 -0.008446259 0.023959974 -0.4937633 0.27355054 0.18817914 0.28517592 0.25032166 -0.095086426 0.03414972 -0.10369475 -0.3320953 -0.4004588 0.24483493 -0.08329679 -0.16289142 0.07198838 0.2925397 -0.16965532 -0.08203678 -0.33610374 0.044679523 -0.044993244 0.41948128 -0.028029725 -0.6545386 0.4638688 -0.25064486 0.0061392747 0.23005542 0.37777504 -0.15180641 -0.2965535 -0.0898982 -0.029721836 -0.3326995 -0.14981298 0.05599784 -0.075514875 0.36953714 -0.81484 0.017029895 -0.12817018 -0.012712601 0.17795588 -0.02142277 -0.11665007 -0.50926864 0.09550205 -0.32129934 0.15300293 -0.2245551 -0.13421056 -0.62035656 -0.027593069 -0.44520724 -0.14681967 0.20166034 0.019926125 -0.111567445 0.30467522 -0.3070651 -0.05656931 -0.09367506 -0.15567775 -0.002439552 0.5916775 -0.023876473 -0.21997891 0.17718153 0.2250546 -0.16493243 0.12684558 0.15478003 0.1405593 -0.34194782 0.000904836 0.12951036 0.3361394 0.26689044 0.50083476 0.21775895 -0.2100299 -0.107520334 0.0971126 -0.09910089 -0.10501185 0.3080653 0.22192752 0.15172362 0.04553514 -0.2191596
but -0.14202121 0.3229558 -0.33030516 -0.11864832 -0.55353725 -0.27687934 -0.12763588 -0.4330542 -0.29343975 -0.15753324 -0.15077516 0.23859553 0.02632453 -0.33564383 0.34501266 0.034403585 -0.09672963 0.019595135 -0.2200205 0.14471292 -0.36423802 -0.10190669 0.012261803 -0.10493183 0.2555572 0.21265137 0.024437416 -0.26381662 0.025995675 0.04391503 0.076377444 0.4096304 0.17039908 -0.47458112 0.13347082 -0.5272256 -0.01928123 -0.10573901 0.047927134 0.23089297 0.024712654 -0.24384177 0.10298297 0.28019634 -0.66483074 0.06478702 -0.051855836 0.18223277 -0.33817366 0.470933 -0.023439454 -0.03204101 -0.20008002 0.18882006 -0.022464788 -0.20217597 0.025197329 -0.2966585 -0.20988822 -0.23143068 -0.20506017 -0.11743515 -0.016882055 -0.37538084 -0.18010347 -0.21439545 0.012913762 0.024750965 0.017769627 -0.3220608 -0.116465196 -0.026167836 -0.3015904 -0.019548163 0.15845986 -0.08701079 -0.1955374 0.13821244 0.55809355 0.11130529 -0.008931647 -0.21339764 -0.14501974 -0.13809451 -0.072909 0.10167774 0.27162552 -0.11150033 0.104272865 0.2864959 0.19311112 -0.35045502 0.1885841 -0.10480884 -0.26000175 0.15297309 0.0135847125 0.14178902 -0.10522657 -0.18813625
public -0.3532287 0.014701423 -0.3670398 -0.2652921 -0.17032982 -0.30732095 0.11198379 -0.32579592 0.07204163 -0.09391058 0.23679113 0.11882864 -0.16685833 0.35785565 0.1293599 0.053362053 -0.2920857 0.502995 0.012193728 -0.016334157 0.17907602 0.5705111 -0.5754343 0.015555703 -0.07400031 0.09617741 -0.11437891 0.21955535 -0.5187288 0.100378916 0.18164179 0.010401331 0.22980049 -0.099324815 0.23342195 -0.022739865 0.0925616 -0.6863907 -0.22942479 -0.13285273 -0.0014520688 -0.102359116 -0.2879973 0.28567263 -0.36107972 -0.17021884 0.26075238 -0.21186155 0.027081111 0.089905925 -0.67031103 0.55185485 0.3484991 0.30579633 0.43900913 -0.55003387 -0.4165802 -0.19746749 -0.3837268 -0.1739818 0.26018342 0.0031321452 -0.15978813 0.05634009 -0.3237163 0.0130702965 0.4337727 -0.1666731 0.38890263 -0.63719827 -0.14783372 -0.2153896 0.030302458 0.30513382 0.22239578 0.03431854 -0.5833656 0.07459706 0.54648465 -0.13899522 -0.10216432 -0.24793671 0.19197583 0.09432904 -0.16579829 0.39329427 -0.062783554 -0.35289425 0.1960898 -0.15419704 0.4176152 -0.44668937 -0.06004419 0.18141672 0.046662506 -0.0056895413 0.06209835 -0.24715829 -0.5552722 0.49463573
can -0.05705524 0.12818022 0.07794356 0.09063667 0.42820168 -0.2986105 -0.39144385 -0.38082555 0.3408933 -0.010694246 -0.19948319 -0.12300516 0.3655344 0.7436948 0.05170348 0.41617617 -0.17672211 0.2187452 -0.17133074 0.08733423 -0.30594704 0.114230834 -0.19228742 -0.116170034 0.25453323 0.42761678 -0.14563327 0.6319571 -0.25916293 -0.31031996 0.29352582 0.11311643 -0.23079161 -0.16084054 0.0557768 -0.23141882 0.07664665 -0.10113398 0.07168864 0.041079987 -0.28684363 -0.23233718 -0.42843097 0.2023741 -0.32911795 -0.06450977 0.15242563 -0.21089835 -0.5201174 -0.13298215 0.16084777 0.35952526 -0.17581873 -0.20341332 -0.09001534 -0.37696767 0.15719776 -0.39811978 0.076632805 0.13057889 -0.01938352 -0.38362524 0.20505184 -0.69165474 -0.3231243 -0.124301985 -0.37946522 -0.47858593 0.20031828 0.07795033 -0.31535155 0.08290996 -0.53610635 -0.10107088 0.2115073 -0.11068686 -0.26489767 -0.05111797 0.6804776 -0.06404743 -0.021550622 -0.16321287 -0.113903224 0.03848747 0.029510189 -0.3168486 0.5120923 0.010587011 0.45858893 0.35156083 -0.15742445 -0.54372257 -0.0910796 -0.2574161 0.11226365 -0.26513222 -0.015662743 -0.046085075 -0.12837504 0.023623958
or -0.17394884 0.26338252 0.10145717 0.36864647 -0.014044326 -0.10274626 0.28958607 -0.3645964 -0.31601906 0.11806598 -0.04850847 0.23266204 0.13741447 0.03466732 0.3068257 0.17091481 -0.48649418 0.035167053 0.16453344 0.08263357 -0.17122114 0.21410975 -0.39970013 0.18420634 0.13012451 0.6178754 -0.022575403 -0.14322643 -0.22172923 -0.09417648 -0.19685064 0.0032278765 0.2573583 -0.6170769 -0.5200936 0.10156103 0.15620036 0.15322155 -0.12906542 -0.22959404 0.029632337 0.01975437 -0.10440552 0.28683776 -0.31489542 -0.021368485 0.06515602 -0.21042094 -0.4900123 0.21971631 0.3802092 -0.16772921 -0.41427553 0.014560344 0.3224003 -0.1444266 0.05204765 0.46366477 -0.08998268 -0.51126665 -0.17267871 -0.4222309 0.008679872 -0.086952254 -0.10065978 -0.35606 0.6220436 0.13451916 -0.09211843 0.14894028 -0.42677355 -0.060174108 -0.029570337 -0.12969306 0.033162106 -0.2040739 -0.30352423 -0.15805791 0.4055369 0.08478036 0.20889826 -0.01063195 -0.050472092 -0.030991245 0.29374543 0.099227935 0.48746133 0.23495021 0.041856915 0.07497079 0.06264095 -0.33747542 -0.20380646 -0.16701703 -0.07806052 -0.09161467 0.24008983 0.019347453 0.11767712 -0.40486103
national -0.06947283 0.19292383 -0.56421685 -0.5954177 -0.38668633 -0.24428798 0.12873659 -0.09840894 -0.19695888 -0.39774555 0.034546636 -0.11336113 0.53790945 -0.25991553 0.27699387 0.14948484 0.011007855 0.42976886 0.44207472 0.32575732 0.07999845 0.020514194 -0.007835341 0.041867014 0.23183505 0.04373804 0.31047082 0.109154694 -0.44680524 -0.31910208 0.017223226 0.0077544604 -0.22321807 -0.37871212 -0.35029176 -0.20384875 0.028006997 -0.54059637 -0.13085818 0.23068184 0.13303468 -0.47457764 -0.4640296 0.23623332 0.13073945 -0.21066684 -0.5346634 0.212701 -0.51443505 0.27403125 -0.04835656 0.13217458 0.12576565 0.13963719 -0.06101933 -0.37234518 0.0013601556 -0.6945011 -0.17629701 -0.54930335 -0.03621474 -0.27780244 0.21181586 0.20197375 -0.47937196 0.26482686 0.4895024 -0.10600234 0.7595277 0.44404343 -0.024084225 -0.033969156 0.032339055 0.07458629 0.12923807 -0.113376506 -0.6215877 0.19982241 -0.11265071 -0.37469143 0.29649767 -0.035175074 -0.04411729 0.1723698 0.030230168 0.3346284 0.2429049 0.084065706 -0.10175794 -0.53446 0.2769072 -0.10940541 -0.309293 0.56886077 -0.12636854 0.022611594 0.10271301 -0.04492208 -0.13071881 0.14643377
so -0.20721143 -0.06689869 -0.0360017 -0.35193342 0.10225934 -0.19859806 -0.21650515 -0.47585905 0.42037088 0.11051728 -0.116540655 0.13000274 -0.026650222 0.09090297 0.008571585 -0.11188442 -0.4557145 0.16815263 -0.07110976 0.5286478 -0.271082 0.09503881 -0.3823439 -0.33728686 -0.20191021 0.050714515 -0.019848472 -0.12104161 -0.5285884 -0.33551803 -0.09534681 0.009571165 -0.41288084 0.23218566 0.06333574 -0.19195838 -0.15630734 0.2619952 -0.011913834 -0.10232529 -0.14744908 -0.049040515 0.02182145 0.2455111 -0.19678938 -0.13097711 -0.08856971 0.05406579 -0.23128888 0.46214968 -0.054426275 0.107083485 -0.1412222 0.27315134 0.1426123 -0.038422193 0.48964584 0.012595008 0.083062395 -0.39408365 0.210333 -0.40807632 0.1399352 -0.20629752 -0.7198257 0.044254616 0.21597768 -0.061973948 0.27403864 -0.21790627 0.20102857 0.32231015 -0.29170293 0.049019016 0.24887396 -0.14275701 0.06556272 -0.27248135 0.32176173 0.058474146 -0.057902627 -0.23900174 -0.21847598 -0.13605188 -0.17258248 -0.027903868 0.047154553 0.101106435 0.31981012 0.39942852 0.012705036 -0.44940418 -0.114545025 -0.0076325196 0.17167543 0.054576527 -0.010084573 0.33898827 0.25523338 0.056745388
support 0.17152484 0.08156761 0.017361535 -0.18041793 -0.044402905 -0.2679261 -0.28220376 -0.20042248 -0.19675456 0.19439892 -0.38644564 -0.22926961 0.13533424 0.19525082 -0.24058685 -0.301057 -0.2770961 0.064106114 0.015233362 0.08628284 -0.17890424 -0.04176232 0.0361233 -0.41334778 0.4158125 0.47076267 -0.0921222 -0.24058565 -0.36617675 -0.40004483 -0.19225168 0.34382313 -0.1844747 0.047912985 -0.15870892 0.39171734 -0.15114354 -0.20729311 0.064284 -0.20089269 -0.22583991 0.10676624 -0.18334809 0.052202582 -0.013215958 -0.15161633 0.03345055 -0.18921389 0.23381893 0.2665593 -0.292127 0.1872973 -0.40599856 -0.05705457 -0.07410469 -0.17019743 0.26383904 -0.13326004 -0.20862752 -0.026431138 -0.2502083 -0.438081 -0.22084217 0.060123503 -0.3256669 0.4010922 0.04487236 0.19893943 0.8573265 -0.2990901 0.12039353 -0.14266255 -0.11298292 0.08176372 0.20415966 -0.13788737 -0.4238023 -0.3255142 0.26492035 0.1767784 0.05326823 -0.28865984 -0.14432055 -0.011396722 0.048022408 -0.10626441 0.12637272 -0.21384418 -0.03472128 0.34267458 -0.2435073 0.20338494 0.010832122 0.02309547 -0.47922495 -0.010223102 0.21064371 -0.26446036 0.29195425 -0.08318545
services -0.110808775 -0.15748212 -0.24675104 -0.23580979 0.014993136 -0.3350693 0.08857108 0.0062836786 0.027592475 0.3726411 -0.15962714 -0.013596058 -0.18208665 0.26443493 -0.09119011 -0.36479366 0.0979705 -0.054755908 0.46317482 -0.28029078 0.13390283 -0.053576894 -0.32863048 -0.32206994 0.39023423 0.44039384 -0.093340546 0.18717135 -0.1875735 -0.34460342 -0.07263909 0.4292474 -0.68302286 0.05735975 0.1725055 -0.13038275 -0.13301246 -0.5198793 0.12783107 0.15758654 0.10555298 -0.004410655 0.22356345 0.35209563 -0.2942703 0.036008354 0.49235773 0.014774086 -0.24591422 -0.012297939 -0.4340087 0.106149554 -0.13359092 -0.23687899 0.2823305 -0.15658455 -0.27600583 -0.24020936 -0.30486265 -0.2475117 -0.07457266 -0.34730503 -0.16722505 0.04463909 0.0010994251 -0.1091132 0.17482702 0.32762164 0.38964295 -0.31864434 -0.3236853 0.059776697 -0.14665034 0.016531065 0.21804634 -0.28754267 -0.5372066 -0.45051828 0.7308633 -0.015758594 -0.20934962 -0.026691884 -0.19417861 0.035463717 -0.15003814 -0.087226905 -0.06526096 0.13199505 0.21543927 0.5196423 0.3199671 0.14405446 -0.39088202 -0.043327168 -0.08122252 0.2833098 0.24900338 -0.2585269 0.5305036 0.12033795
ensure -0.3388898 0.33773574 0.081750736 -0.24809144 0.18585628 -0.3071085 -0.209226 -0.29427645 0.34708452 0.23101409 0.09256388 0.04111327 -0.0975613 -0.28728694 -0.22034523 -0.44724208 -0.33156255 0.32519233 0.1434873 0.42280316 -0.43489438 0.18727267 -0.21920177 -0.43843836 0.22713946 -0.01838032 0.12584172 -0.12588683 -0.50407827 -0.16564332 -0.09191067 0.17921802 -0.29171363 0.0543363 0.059353996 -0.08652257 0.22639355 -0.17466576 -0.31953615 -0.24825938 0.03493763 -0.5500643 0.31532958 0.17214176 -0.44830835 -0.37910974 -0.17762125 0.20368035 0.26220453 0.6921965 -0.3116896 0.0075037945 -0.32408822 0.21538146 0.10526684 0.118561804 0.22670263 -0.020969687 0.19886002 -0.16025364 0.09899531 -0.52900845 0.22762331 0.032353066 -0.36560568 0.33917677 0.0117097525 -0.12091586 0.7237137 -0.52510566 0.017703816 0.1123925 0.11469131 0.47839898 0.17019983 -0.20068757 -0.17971544 -0.43005165 0.06561098 0.008507326 -0.12988111 -0.30743912 -0.054734588 0.013705658 0.044982553 -0.39597532 -0.0088956095 0.06698731 0.18129894 0.18820554 0.07120265 -0.18470018 -0.22393286 0.19966243 -0.11604392 -0.23238651 -0.02193046 0.09634183 0.13392146 -0.00828973
help 0.06443714 0.34556884 -0.22391008 0.13116206 -0.15344375 -0.2814624 -0.13438103 0.15797274 0.042673178 0.053200983 0.02532168 -0.014975335 0.1484073 0.19792168 0.10787403 -0.06837592 -0.23686972 0.2996786 0.0020657429 0.03647122 -0.3405268 0.09101211 0.37130228 -0.35308865 0.3233827 0.43094817 -0.0059514884 -0.14064266 -0.3762589 -0.18348953 0.05946437 0.13582814 -0.06220176 0.08322986 0.061936997 0.2041784 -0.18724366 -0.10181926 0.23626527 0.0030763776 -0.37315044 -0.030648433 -0.2343369 0.43262047 0.079004385 0.11540319 0.11805485 -0.49443355 -0.052032415 0.5657213 -0.297656 0.18862973 -0.22870156 -0.14519913 -0.058904763 -0.082217604 -0.048247937 -0.16759363 0.23711818 0.07176792 -0.14193605 -0.36141285 -0.14037298 0.14665934 -0.21166082 0.35953206 0.1409487 0.008220959 0.46731484 -0.1320109 0.14002867 0.20775858 -0.20586322 -0.1247177 0.3928295 -0.07825554 -0.56096846 -0.12203923 0.36105865 -0.041649956 -0.22331198 -0.31909224 -0.12195085 -0.08219937 0.18083908 -0.1127143 0.50700563 0.055317212 -0.0379304 0.32560092 -0.36998573 -0.05639055 0.15561587 0.013667024 -0.74840605 -0.077416845 0.2961957 -0.38080242 0.0037143566 -0.2671519
make -0.1971362 0.6401036 -0.2067295 -0.019265823 0.25890142 -0.25191543 0.0143379 -0.11063473 -0.18859576 0.3770176 -0.051333215 -0.08413818 -0.12419747 -0.22791126 -0.33259985 -0.12983574 -0.42730957 0.19853394 -0.417774 0.1059699 -0.6218005 0.050810967 -0.20971386 -0.18755335 -0.12751779 0.2625466 -0.08762953 -0.10616224 -0.37900183 -0.1065658 -0.055139482 0.35857627 0.112298146 0.26905507 -0.26117745 -0.08322897 -0.2825231 -0.30652985 -0.03827391 -0.20916821 0.21211904 -0.24438606 0.05679173 0.42752644 -0.09670688 -0.37584436 -0.16520791 -0.09407526 -0.05350176 0.290225 -0.291873 -0.12904698 -0.008330028 0.3814935 0.24001285 -0.25034612 0.03152281 -0.05103507 0.31553957 0.16422296 0.09895068 -0.5761443 0.28548908 -0.040846385 -0.34963787 0.3398694 0.15034804 -0.052227754 0.66232634 -0.47054943 0.07457321 0.06749485 -0.099884816 -0.021361653 -0.17248991 0.24613512 -0.12956066 -0.22255236 0.47561783 0.43293414 -0.3293739 -0.058259692 -0.22581822 -0.22420233 0.22530985 -0.3884868 -0.04898422 0.072107315 0.18870084 0.5837749 0.13768718 -0.005254235 -0.017996859 0.1770574 -0.34211653 -0.38928348 -0.31523922 -0.2363523 0.047242682 -0.02518395
those -0.23055987 0.10357014 0.3491276 -0.10604616 0.0072093885 -0.2774106 -0.065950505 0.17666218 0.2820532 0.07190211 -0.019534083 -0.14784965 -0.4459517 -0.19220525 -0.08800768 -0.17614044 -0.051633712 0.44339916 -0.22330123 0.04622034 -0.20124795 0.18897486 -0.039943945 -0.031341366 0.20758414 0.0806602 -0.19398434 -0.14601071 -0.28117454 0.17505918 -0.005708715 0.3343486 0.19960883 0.14359203 0.032387137 0.1497405 0.019400004 0.36137456 0.22125705 0.01514629 -0.570851 -0.18610117 0.031436294 0.5402049 -0.36454138 -0.2893492 0.19436164 -0.29548484 -0.6056833 0.25452092 0.14985192 0.14224333 -0.36446202 -0.2834817 0.28018406 -0.47996703 -0.24382502 0.2773929 -0.3177474 -0.7353916 -0.041871455 0.15724523 -0.10120234 -0.2361668 -0.2720596 0.23618698 0.3277384 0.09334955 0.33212855 -0.13809435 -0.22761813 0.24434543 -0.048836615 0.12719521 0.1744377 -0.23435558 -0.3891107 -0.19160475 0.6635153 0.30226728 -0.020548027 -0.09289651 0.2627777 -0.034443513 0.35758606 -0.101325355 0.51062554 -0.04998543 0.13365082 0.40482548 0.020569732 0.289744 -0.34662098 -0.24152018 0.13532063 -0.44818804 0.3228157 -0.14364956 -0.18399653 -0.51306725
up -0.32658732 0.66751605 -0.49472094 -0.1541432 -0.6521855 -0.10309724 0.09169719 -0.36231267 -0.015274733 -0.031739876 0.08888494 -0.51483446 0.10340662 -0.15519117 0.12021046 0.0075400434 -0.42182487 0.12100582 -0.0981791 -0.075557865 -0.34347713 -0.21550421 0.09488244 -0.21972379 0.4513229 0.7123103 0.12628725 -0.23602179 -0.15365645 -0.24229835 -0.031370167 0.009641548 -0.30942002 0.2804617 -0.10452653 0.20440204 0.27212784 -0.22720921 0.22240396 0.15802573 -0.017338308 -0.17749296 -0.1841962 0.52604574 -0.3418148 -0.34608263 -0.60237473 0.2654796 -0.17512251 0.38887656 -0.22044314 0.4509594 -0.16647798 -0.031171821 -0.32691458 0.18706116 0.055240188 0.11257587 0.12680984 0.048269533 0.0876207 -0.37759367 -0.02499442 -0.30050737 0.1573122 -0.084106594 0.55719614 -0.06467444 -0.045336653 -0.09325973 -0.028735789 -0.29639074 -0.4711871 0.19299239 0.019995905 0.32847723 4.392132e-06 -0.18139523 0.2737426 -0.503035 0.085513584 0.18917277 0.3986237 0.25923276 0.2560563 0.48757246 0.5073981 0.45415452 -0.12776071 0.2142821 0.16551955 0.38618556 0.21537626 0.19650446 -0.04060523 0.15305774 0.40319365 0.69648355 0.19192654 -0.36860642
been -0.31659487 0.12262115 -0.039358284 -0.55040646 -0.27406013 -0.30494577 -0.33844742 -0.2937771 -0.26174736 -0.18060493 0.109603174 -0.26309574 -0.15243499 0.104587935 0.29646426 0.2183503 -0.75534946 0.14903426 -0.62418616 -0.02079901 -0.43174422 -0.25147116 -0.07281988 -0.151234 0.499107 0.6702623 0.33842465 0.30620134 -0.16953017 0.34868923 -0.41322303 0.13840877 0.27689743 0.050597627 0.22149514 -0.40534607 -0.22803943 0.12746774 0.27468514 -0.053317737 0.19811071 0.082496434 0.23762359 0.59986955 -0.47338137 -0.15687059 -0.279156 -0.13356234 -0.63986623 -0.1884767 -0.078604795 0.20872882 0.21109807 0.0022997912 -0.08131464 -0.45524865 0.19900471 0.14571919 0.06615683 -0.36104244 -0.19665891 0.15415181 -0.40903923 -0.2727463 -0.28087175 -0.38941664 0.100513004 0.30448064 0.20812757 -0.022751927 0.1357111 0.25565565 0.55771536 -0.42143384 0.372714 -0.12809186 -0.6052864 -0.23866117 0.16972499 -0.026386544 -0.036423475 -0.11507775 0.43725553 0.17521322 -0.3835385 -0.027361337 0.0034135466 0.20932604 -0.06295414 -0.10515192 0.510047 0.13656425 0.24815284 -0.07509117 0.13554999 -0.06965095 -0.040015176 -0.4030459 0.20151795 0.17698991
continue -0.3383449 0.19294049 0.22919615 -0.167756 0.09202883 -0.102193385 -0.38154835 0.039517827 0.13503581 0.26926163 -0.23698139 0.041893177 0.03568039 -0.07791286 -0.1271596 -0.004298228 0.29351646 0.4521342 0.00021540913 0.23004994 -0.13232696 0.34898615 -0.21561587 -0.22581483 0.4295795 0.50765806 -0.12119931 0.004680939 -0.43236998 0.0046319934 -0.14167921 0.27147037 -0.25661907 0.31163234 0.0059545343 0.293273 0.16207987 -0.34805167 -0.021857468 0.1599169 -0.18271628 -0.02880966 -0.4098779 0.045262903 0.11600321 -0.1294382 0.29227084 0.08220577 -0.29513434 0.3607868 -0.44452286 0.33764428 -0.2148985 0.1920394 0.018362645 -0.17695011 0.34524593 -0.080730036 0.21561813 -0.0922308 -0.16070522 -0.1696736 -0.050786044 0.41878656 -0.5038592 -0.08062965 -0.12387249 -0.005435221 0.4439379 0.0114576295 0.27378595 -0.17804243 -0.43353358 0.30783772 -0.008356586 -0.018935138 0.05844195 0.039719094 0.52550495 0.23236744 0.08342194 -0.30373695 -0.4695204 -0.19012341 0.06388135 0.08851706 0.1924997 -0.27511403 -0.1372086 0.2571838 0.19208348 0.11118845 -0.19259244 0.21836893 -0.48622966 -0.13695486 0.30451447 0.12995917 0.21969369 -0.14591868
who -0.28249007 0.08006481 0.23344736 0.4556157 -0.24976145 -0.14623065 -0.109621495 0.046362706 -0.02189033 0.08160468 -0.44629923 0.17131759 0.104682006 0.004212705 -0.097215645 0.27639234 -0.32384697 0.38259673 -0.057295006 -0.12446141 -0.193459 0.12849075 -0.023646118 -0.37854412 -0.084199116 0.43286702 -0.055750437 -0.09034701 -0.39235073 0.0716061 0.4523158 0.35460663 0.18908274 0.118754916 0.0755834 -0.04153041 0.13492955 0.291657 0.1717235 -0.13474327 -0.53393054 0.09688968 0.30490187 0.6360791 -0.4336201 0.25424764 -0.17399639 -0.06827125 -0.31619206 0.42973766 -0.24198945 0.08861479 -0.116730124 0.22024901 0.4714314 0.3452177 -0.58802915 0.5143415 0.23267682 -0.5115174 -0.15833889 -0.23177631 0.112447664 0.18113081 -0.16023983 0.20692664 0.68318635 0.13585165 0.19693275 -0.44204128 -0.12057739 0.2194948 -0.035397608 -0.18305917 0.25981858 -0.008595003 -0.226716 0.0896437 0.76145464 0.088335186 -0.26176375 -0.5244362 0.20989302 -0.24954382 0.13743126 -0.36911356 0.3099521 0.4226888 0.3847448 0.55062366 -0.0720175 -0.25970381 -0.3337261 -0.3001715 -0.32734525 -0.1494107 0.49407038 -0.14625165 -0.4461507 -0.39031762
over -0.026503308 0.44730952 0.040497057 -0.46504557 -0.19032274 -0.333592 -0.37424025 -0.22849563 0.11258526 0.34654024 -0.21734096 0.20109767 -0.113870986 -0.00096768874 -0.4012678 -0.04459281 -0.29936838 0.28632686 0.15925536 0.18134916 -0.095816635 -0.11269303 -0.20089406 0.08448596 0.15885742 0.58454096 -0.11180209 0.16097295 -0.49470624 0.07088981 0.16559961 0.28000066 -0.16759329 -0.118861616 -0.06970402 -0.062430695 0.20495567 -0.14554031 0.815932 -0.42279714 -0.027411837 -0.21818031 -0.36311787 0.40967685 -0.4895308 -0.22699012 -0.15422602 -0.35897997 -0.005803602 0.34969792 -0.08616907 0.32525474 0.023153363 0.39005336 0.007688367 0.0926283 0.09661194 -0.21220167 0.28251556 -0.4561495 -0.0062863184 -0.038997762 -0.12652348 0.23982422 0.054538447 -0.25321966 0.39197743 0.29566437 -0.101751365 -0.2129373 -0.17940515 0.002002972 -0.33671093 -0.047672115 0.15939507 -0.031423952 -0.12776966 0.28888774 0.1895751 -0.5098592 0.23566079 -0.15062396 -0.07140699 0.28393424 -0.19983329 0.19649298 0.1842854 0.0015995733 -0.08359012 -0.15139939 0.27396104 -0.11967166 0.39884028 -0.2149003 -0.024476204 -0.028106742 0.42961094 -0.07329836 0.34843087 0.07950854
also -0.09285553 -0.014171628 0.33728507 0.0028235153 0.012922722 -0.1671053 -0.013973408 0.0234121 0.25898972 0.14049514 -0.06094998 -0.07185656 -0.30760586 -0.00937719 -0.028264677 0.00873457 0.11518585 0.22236103 0.1816752 -0.014950378 -0.42087898 0.0784371 -0.031220077 -0.13160644 0.067453966 0.36522883 -0.23073202 -0.14953518 -0.34808064 -0.19302213 -0.25919038 -0.01051229 -0.21308482 0.056656037 0.10307332 -0.0033024936 0.31246617 -0.38368514 0.07497401 -0.064842455 -0.0024776843 0.14837876 -0.06027976 0.18047738 -0.375872 -0.24381262 0.22101718 -0.27026567 -0.29450712 0.33428276 -0.16627492 0.42594784 -0.09051188 0.29534537 0.305934 -0.131973 0.08471807 -0.06010366 -0.058091868 0.20033765 -0.28367352 -0.33737484 0.091726884 0.10070324 -0.41164568 0.22092327 0.33736637 -0.016759515 0.073774666 0.038583487 0.040922966 -0.26007992 -0.33069667 0.010067114 0.075149074 -0.2227172 -0.076845445 0.2382505 0.4273372 -0.029969819 -0.07402732 -0.30554545 -0.16987911 -0.3232889 0.16009004 0.23276941 0.57840294 -0.17644298 0.30484706 0.49493635 0.24288246 0.08358063 -0.12273227 0.14821829 -0.36399356 -0.17625293 0.14007728 0.18792422 0.35619247 -0.06910255
than 0.13502169 0.377174 0.08888136 0.37324953 0.469165 -0.05493648 -0.5058839 -0.080700405 -0.050965164 0.004411434 -0.0963597 0.2677422 0.3188845 -0.39544728 0.106182635 0.13760163 -0.8180016 -0.17577095 -0.20519552 -0.16041787 -0.2530227 0.11231685 -0.19940828 0.20317787 0.09758976 0.58369076 -0.20285174 -0.0063689947 -0.816336 0.2970761 -0.20082255 0.43100542 0.116274506 0.22911473 -0.29689804 -0.14663611 -0.1341851 0.21378487 0.37563825 -0.21657172 -0.104459144 -0.05195276 0.038803596 0.22583073 -0.067576095 -0.2810003 0.007976746 -0.2426202 -0.16591953 0.633581 0.2638358 -0.058989238 -0.059217043 0.07709254 -0.18952926 -0.3960364 0.47574192 -0.41817525 0.10313856 -0.5611208 0.32182947 -0.2900656 -0.16648248 -0.15893355 -0.18256313 -0.24885054 0.35545585 0.18332228 0.553143 -0.3821756 -0.18752213 0.19684182 -0.7257951 -0.39035058 -0.16878098 0.1632349 -0.58402604 0.4548706 0.27832425 -0.47357196 0.24258074 0.117880374 -0.09947449 -0.13949572 -0.008377041 0.15786573 -0.3869032 0.301749 0.28939518 -0.15224051 0.26848155 -0.13865688 -0.3093484 -0.6383426 -0.62329936 0.14892103 0.08314439 -0.22785607 0.024750385 -0.019105807
tax -0.42448223 0.14353085 0.24975264 -0.040520538 0.14134078 0.08110899 0.19014125 -0.016299615 -0.021312997 -0.19145842 0.19987343 0.1202018 -0.050318316 -0.15876426 0.4330917 -0.30785003 -0.04245952 0.26200992 -0.3277677 0.43927583 -0.16123502 0.32601976 0.19848688 -0.31577212 0.022880549 -0.049529444 0.1531498 -0.027633162 0.04563933 -0.30982876 -0.06816522 -0.06264181 -0.16849516 0.22596197 -0.3095991 0.039320372 -0.34531966 0.17252047 0.39199474 -0.2762133 -0.14505845 0.24856167 -0.06663121 0.24839346 -0.09910454 0.4083 0.24061804 -0.5141728 0.15295653 0.7601531 -0.13268796 0.19448936 0.4414521 0.007223416 -0.0362663 0.063526645 -0.097788714 -0.3168772 0.42501515 -0.68562716 -0.2931925 -0.5773933 0.087808065 -0.39882082 -1.0088998 0.32761285 0.3407799 0.05107396 0.51920605 0.06610994 0.4232787 0.2444084 -0.3883071 -0.055115737 -0.14312296 0.058122866 -0.82654095 0.39126387 0.534198 -0.3355339 -0.008012562 -0.11121179 0.23773518 0.27244514 0.26550958 0.10435088 0.6571531 -0.44922367 0.4079061 -0.059054963 0.11508088 -0.064029746 0.30688295 -0.17536882 -0.3288506 -0.21691205 -0.15723932 -0.24530724 0.2787107 0.08623024
system 0.010689146 0.078628056 -0.044219144 -0.13150363 0.36842063 -0.04894543 0.1364778 -0.46187404 -0.11166337 0.11100608 0.21509387 0.100631095 0.25935242 0.12931888 0.15529428 -0.26670364 0.13776232 0.042630263 -0.16546182 0.15989721 0.051152736 0.06960026 -0.319869 -0.51979166 0.31292108 0.16866913 -0.16581431 0.103969194 -0.07793906 -0.4248819 -0.21370421 0.23053123 -0.2321849 0.41668332 -0.093576044 -0.42506048 0.07352861 -0.210532 0.007306484 0.19083785 -0.090024486 -0.1882444 0.34248838 -0.049193565 -0.2529538 0.064904645 0.11820888 -0.0024743758 -0.3553911 0.048711017 -0.34738734 0.124992155 -0.13434578 -0.011215769 0.40385205 -0.034643672 -0.104089856 -0.39491934 -0.23767574 -0.54969186 -0.57860124 -0.20895675 -0.18900195 -0.5390547 -0.2925437 0.3834437 0.3001392 -0.054604042 0.22544448 0.09140178 -0.19997877 0.07521181 0.018801246 0.06346488 0.1747526 0.09566108 -0.03531177 0.08621837 0.51957065 0.20141782 -0.15158194 0.094507664 -0.12988424 -0.035217382 -0.0045090932 0.096274085 0.2396969 0.25507218 0.5093667 -0.14451537 0.36381483 0.12156797 -0.23853554 0.1049746 -0.52189237 0.017521756 -0.014467558 -0.13514026 0.47552085 -0.1769631
must -0.06750827 0.24706115 -0.008753941 -0.2502927 0.1522456 -0.2717161 -0.36318734 -0.2246599 0.07116638 -0.08766833 -0.16840306 0.03379598 0.12635264 0.14069602 -0.12423956 0.25371286 -0.027937897 0.39379245 -0.050927397 0.20237117 -0.42596945 0.10894487 -0.5509064 -0.091952115 0.2341428 0.31941754 -0.08394758 0.093770795 -0.09132825 -0.46397707 -0.03469722 0.41468325 -0.09814632 -0.139526 0.04121929 -0.1616784 0.09798172 -0.08825502 0.047109127 0.25950015 -0.028568974 -0.36768627 -0.17628808 0.03773686 -0.43675604 0.06623188 -0.08427041 -0.0078886105 -0.41173464 -0.19449688 -0.053190283 0.000833769 -0.26905245 0.22992168 0.057020903 -0.3302344 -0.13832916 -0.066681564 0.1393433 0.2771709 -0.06928634 -0.08740474 0.1780233 -0.4818539 -0.1584793 -0.055791296 -0.1519472 -0.31115773 0.24150881 0.17205076 -0.04596909 -0.25989172 -0.51490617 -0.19448906 0.4198685 -0.025197847 -0.22045034 0.07526379 0.5017816 0.24573356 -0.074463084 -0.49438724 -0.31509137 0.12601018 -0.14712696 -0.27418965 0.34428698 -0.3151527 0.31339115 0.30667216 0.099630125 -0.5869145 -0.0850194 0.12147665 0.032144804 -0.2154374 -0.14763011 0.059079982 0.12614271 0.31644422
british -0.29512078 0.18184058 -0.3145688 -0.3940542 -0.117748305 -0.2094023 -0.2526923 0.022730798 -0.1173467 0.0154842045 0.020178756 -0.61355275 0.055270087 0.19649845 0.21279548 0.52215534 0.04635632 0.11523785 -0.18223946 0.17240356 -0.3141871 0.3577535 -0.238043 0.039308872 -0.06492943 0.2191797 -0.07958473 0.3063589 -0.32565308 0.27665064 0.22773363 0.13626891 -0.15265682 -0.36156744 0.23596755 -0.10484407 0.17411007 -0.3311778 0.4385837 -0.04063531 -0.27682614 0.085203834 -0.14179802 0.040804293 -0.1051757 -0.03524826 0.10751453 -0.06690449 -0.10302216 0.11882223 -0.16663425 0.26049972 0.12689242 0.042622093 -0.15749525 0.16974588 -0.37132233 0.054451168 -0.24315271 -0.17096278 0.028119108 -0.77798265 0.2539147 -0.06995574 -0.04674608 -0.119365074 0.36165753 0.00034250092 0.36030754 -0.1442264 0.24937305 0.010797234 -0.14640982 0.013880082 0.41574648 0.16580017 -0.45884657 0.14756535 0.02806731 -0.016670156 -0.16443114 -0.286331 0.071139306 0.0068030558 -0.20067854 0.27612597 0.35604295 0.04514705 0.3486934 0.24167489 -0.023538476 0.030575452 -0.25007686 0.0032194953 0.03536426 -0.10658445 -0.07348022 0.3918253 -0.053940896 0.28012368
its -0.5416471 0.47538963 -0.16007814 -0.1976852 -0.49949357 -0.019256143 -0.23682193 -0.04125782 -0.26693448 -0.049746625 -0.4687925 -0.13868529 -0.033033874 -0.26924378 0.04686769 0.44939488 0.057709794 0.032031666 -0.23438641 0.16873299 -0.20980701 0.18690027 -0.51384044 -0.08970732 0.07472577 0.2490502 -0.1358028 0.35613576 -0.27436334 0.25140953 -0.12374997 0.27758616 0.031139769 -0.09501123 -0.110310234 -0.06379465 0.048924353 -0.15071395 -0.18744963 -0.21383677 -0.1650542 -0.14816816 0.20175685 -0.016471816 0.15643348 -0.095855534 -0.4511072 -0.19293907 -0.45826003 0.015227046 -0.43884835 -0.035541203 -0.34405676 -0.25650048 0.004952677 -0.35997328 0.041069925 -0.044349313 0.20742199 -0.18374172 -0.026461883 -0.2455986 0.22352608 -0.2637622 -0.23972818 -0.31287453 -0.0424278 0.03476709 0.6551019 -0.059251867 -0.33393702 -0.32093814 0.027256561 0.14300732 0.30119672 0.10108629 -0.0055495747 0.21716626 0.32350588 0.21831205 0.10641237 -0.09692894 -0.40283278 -0.06689363 -0.20156929 0.21600628 0.2039795 0.004957459 -0.25999907 -0.22333224 0.06833705 -0.044411577 0.25528982 0.042393785 -0.08889088 -0.2323139 0.24755727 0.0036945958 -0.18656029 0.18801829
need 0.06674895 0.19788419 -0.19141713 0.17611292 -0.038433757 -0.10452851 -0.20310664 0.11880881 0.11387792 0.15231009 -0.3284757 0.019378358 -0.03130205 -0.21918593 -0.1690998 0.22157854 -0.1111709 0.016700946 -0.23816374 0.057112597 -0.3457321 0.15537754 -0.17886738 -0.30145898 0.3891982 0.52046317 -0.2975398 0.00527153 -0.20419285 -0.36274943 0.069817506 0.16692196 -0.11716394 0.18017788 0.16293629 0.08567131 0.17122264 0.011791415 0.19800314 0.15982462 -0.3311049 -0.33725616 -0.1735434 0.01363383 -0.33196965 -0.14772876 0.19971389 -0.26397264 -0.17932846 0.37080774 -0.19398974 0.14144637 -0.19386852 -0.32582968 0.26940703 -0.22529332 0.012444638 -0.2990099 -0.1223293 -0.06456758 -0.00827455 -0.04423526 -0.1136471 -0.22301094 -0.17977847 0.34933838 -0.042800933 0.21557993 0.47895417 -0.21217567 0.1334387 -0.05090838 -0.16596599 -0.3539589 0.24592026 -0.096752435 -0.44705743 0.20538363 0.55732596 0.012995334 -0.09710413 -0.0643432 0.07162443 -0.18144184 0.13571641 -0.1588333 0.3148509 -0.07175597 -0.11076879 0.63497204 0.08520389 -0.38952485 -0.19078423 0.0039111446 -0.342769 -0.019110927 -0.07051604 -0.1867974 0.19010063 -0.1770342
education -0.37566572 -0.114875816 -0.19887649 0.11478477 0.10316224 -0.08529602 -0.4160629 -0.53526163 0.18152262 0.26359805 -0.31153798 -0.29478025 0.5470626 -0.14494875 0.018177561 -0.13483965 -0.5639529 0.33118883 0.44625893 0.061740045 -0.20913738 0.46364242 -0.080817915 -0.2532443 0.30364755 -0.00468244 -0.42233196 -0.41574636 -0.09700612 -0.41093773 -0.27446422 -0.071300074 0.40697625 -0.21230341 -0.39613897 -0.17425753 -0.3768254 -0.43613613 -0.04692239 -0.09264747 0.18488158 -0.3917038 0.4777716 0.60089195 -0.4107961 0.1520025 -0.014103247 -0.14504719 0.0049455287 -0.26760042 -0.2662489 -0.36376998 -0.12684284 -0.20442875 0.48794413 0.019049734 0.19872189 -0.29545918 0.0725165 -0.2705272 -0.026458181 -0.30870423 -0.07424593 -0.09569347 -0.22724564 0.090825036 0.12198169 0.059007093 0.07921857 -0.31727612 0.08240853 -0.28614905 -0.32365334 0.00095883553 0.039629467 -0.046183396 -0.9157979 -0.0038481741 0.29931292 0.26462197 0.0817023 0.44668114 -0.38617137 0.12316157 -0.13053083 -0.064559445 0.35826045 0.0040909476 -0.08768965 0.14725445 0.17530145 0.19366099 -0.21170278 -0.13983335 -0.23683919 -0.020526117 0.26943693 -0.07291108 0.7538301 0.0146958195
years -0.35768756 -0.07029161 0.43812713 -0.7082742 -0.25383642 0.14631702 -0.6705245 -0.2932233 0.14687292 0.21253932 -0.17298536 0.029818974 0.25280103 0.011870928 -0.06525564 0.12251789 -0.1727939 0.047974583 0.09945973 0.024966983 -0.15007189 0.5623066 -0.36423314 0.0042436905 0.18340802 0.28967384 0.04928983 0.2094888 -0.41495988 0.37214163 -0.2933901 0.55973154 -0.061372098 0.064063475 0.15744355 0.112163685 0.13675986 0.28125608 0.8656968 -0.164268 0.35051692 0.024759784 -0.023956379 0.373036 -0.55267805 0.05945199 -0.009752185 0.13994956 -0.5593377 0.31793812 -0.2605657 -0.0796737 0.16729699 0.66276497 0.27440202 -0.29003173 0.6116558 -0.32489702 0.16888104 -0.42695788 0.17570843 0.05445949 -0.07605239 0.06557368 -0.1732451 -0.02237531 0.42073786 0.2632282 -0.021779323 -0.12638798 0.05064002 0.25401765 0.009947316 -0.49208903 0.27917945 -0.044985898 -0.35343885 0.29127222 0.41209024 -0.26575062 0.2794752 0.20900589 0.26139653 0.44488382 -0.5545885 0.299586 0.18928356 -0.039703403 0.010110901 0.022992527 0.18587823 -0.19558504 0.028463552 -0.23345257 -0.14346725 -0.016745271 0.017534472 0.009070456 0.36867368 -0.02260119
now -0.27194744 0.13139392 -0.11662452 -0.20099495 -0.20337068 -0.1575026 -0.077330545 -0.11163461 0.046002444 0.23618604 0.0074374196 0.0707102 -0.032693814 -0.034151666 -0.06476651 -0.018923508 -0.12843035 0.059898477 0.03008054 -0.11410232 -0.43973902 0.052360628 -0.077938564 -0.0865649 0.108000346 0.3164394 -0.12001356 -0.10957746 -0.34051275 -0.070448056 -0.21779516 0.14174922 -0.017579017 0.09616351 0.059210684 -0.12519528 0.06002835 0.09809413 0.07614486 -0.11714651 0.06642539 -0.13910289 0.04981357 0.32727265 -0.33602795 -0.026674299 -0.18476552 -0.064704105 -0.1968398 0.50128007 -0.12336896 -0.14060098 -0.04743031 0.08329051 0.091543786 0.08056358 0.10643287 -0.18486148 0.05290663 -0.46661216 -0.19318838 -0.12031149 0.11183947 -0.08075253 -0.10443395 0.06035728 0.21117269 0.22571403 0.27278844 -0.26411575 -0.0792349 -0.10566097 -0.30310088 -0.09132734 0.019169904 0.067622945 -0.1614407 0.15241292 0.2974682 -0.28295997 -0.017614957 0.07133912 -0.12367491 -0.13089953 -0.0071482845 0.11544882 0.244757 0.27073652 0.09076525 0.1271362 0.45459673 -0.3047247 -0.094742425 -0.16631655 -0.039892405 0.065782316 0.035860293 0.039878674 0.0632515 -0.007204497
give 0.38469008 0.47540164 -0.031382803 -0.21983477 0.13332243 -0.44387436 -0.06356728 0.030173454 -0.4996022 0.21231413 -0.33708945 0.12749663 -0.080234095 -0.098625496 -0.290967 -0.2161285 -0.2276406 0.37559888 -0.032143895 0.44561908 -0.10975389 0.32962292 0.03860327 -0.3591583 0.05558022 0.38287064 -0.06469204 -0.07689125 -0.4770971 -0.08101706 -0.31862372 0.2963134 0.11686239 0.24422558 -0.19519277 0.07906023 0.0672814 -0.27876177 0.14130254 -0.29169935 0.005463769 -0.222289 0.13627699 0.28045952 -0.22669424 0.0332049 -0.17872332 -0.549044 -0.082783416 0.13754511 -0.4108808 0.26893514 -0.15118098 0.16778673 0.3925257 0.208112 0.17181574 -0.33357924 0.130285 -0.23496488 0.24239324 -0.0805202 -0.4085663 -0.024703754 -0.20064652 0.020202111 -0.3533154 0.32718536 0.27891588 -0.27571914 0.18887767 0.23407988 -0.18744443 -0.09654298 0.31477043 0.09282969 -0.4610227 0.03733778 -0.044413924 0.21987261 -0.092495725 -0.37579444 -0.31696826 -0.25661612 -0.19998503 -0.09547226 0.27571586 -0.07729749 -0.17164296 0.55993676 0.24130446 -0.21764034 -0.06553043 0.18194729 -0.34582612 -0.43759292 -0.031301003 -0.27370182 0.3095092 -0.2923086
there -0.22548153 -0.07718597 0.25643358 -0.2611156 0.09741822 0.009260186 -0.2238255 -0.120024234 0.069319345 0.48143804 0.07986918 0.4536568 0.0025116329 -0.22759101 -0.16188632 0.07915739 0.10771781 -0.06715229 -0.20929518 -0.14245269 -0.029594533 0.10456136 -0.086247854 0.22622922 0.13162003 0.21422285 0.10654909 0.11166256 -0.28527862 0.22774576 -0.021366628 0.4768676 0.20667377 -0.3124595 -0.12840535 -0.3862632 0.12210467 -0.05026056 0.08816423 -0.3087531 -0.06525439 -0.44201437 0.36182603 0.13529395 -0.49178147 -0.10510327 0.034831587 -0.020569718 -0.4466739 0.088109426 -0.03778179 0.04462207 -0.40030354 0.45938426 0.2686237 0.027866527 -0.009416303 -0.3556259 -0.293041 -0.59386986 -0.0824203 -0.36518395 -0.030803736 -0.058297068 -0.2498642 0.14359285 0.0275337 0.42974976 0.25243434 -0.39921558 -0.26241666 0.14354025 -0.30428657 0.118307 -0.052378617 -0.0751007 -0.27197897 0.5525146 0.32347783 -0.11536317 -0.13679981 0.03333255 0.073512524 -0.29698095 0.14041096 0.03817452 0.21324734 0.17431876 0.45636517 0.09221457 0.26935974 -0.5023083 -0.07695421 -0.15321432 -0.042117752 0.38238007 0.23482652 -0.21232596 -0.076736234 0.065212846
these -0.36104968 0.13230036 0.19173725 -0.21209873 -0.12320143 -0.2598642 -0.103946224 -0.063380376 0.19661726 0.025531376 -0.02419168 -0.24646588 -0.22080676 -0.13922733 -0.020765476 0.09201619 0.19144905 -0.037544195 -0.05020008 0.26783267 -0.32104427 0.1992279 -0.08468429 -0.10555687 0.10769397 0.050690692 0.10855995 -0.021874867 -0.30387446 0.2592933 -0.34998772 0.3041526 -0.031055769 -0.027422495 0.12342348 -0.17786023 0.289597 -0.13138893 -0.09605766 0.08127954 0.0777805 -0.22086047 0.17427644 0.32356307 -0.49487245 0.050769754 0.13268366 0.004231144 -0.55431646 0.12930726 0.08937889 0.26739454 -0.086124174 -0.008031173 0.2839091 0.15433441 0.026095217 -0.024495244 0.0115053095 -0.029862547 -0.003523108 -0.12935762 -0.104949936 0.12658383 -0.25554153 0.013283296 0.11577268 0.047394678 0.061943006 0.019172318 0.08059241 -0.028845102 -0.43699545 -0.09755014 0.10955924 -0.33795178 -0.23526841 0.061313774 0.5309933 -0.15405801 -0.1353783 -0.27023497 0.11929659 -0.47945032 0.097596064 0.20216182 0.45527995 0.07024128 -0.032546904 0.26571766 0.26255646 -0.24363801 -0.027113602 -0.018006474 -0.055059183 -0.10284445 0.078950815 0.11254155 0.038958844 0.08011119
out -0.5595485 0.30047435 -0.036970325 -0.16002358 -0.49571076 -0.14101465 -0.21464027 -0.16914392 0.16169457 -0.13031645 -0.020907732 -0.30940416 0.2856252 0.11650067 0.41762692 -0.07945047 -0.20507866 0.35834882 0.04006153 0.12257764 -0.52489793 -0.031355217 0.14986604 -0.19681454 0.45211098 0.18829322 0.327508 -0.011557376 0.12603801 0.021536326 -0.414786 0.4256765 -0.016085211 0.59466726 -0.16712 0.20772746 -0.054513786 0.14173181 0.469068 0.08605061 0.28347167 -0.15693077 -0.10049942 0.5617856 -0.560748 -0.21665095 -0.65974665 0.15373527 -0.3550684 0.4751203 -0.12599008 0.482498 0.11351162 -0.12117724 -0.34020522 0.24529806 0.0116997585 -0.10304198 0.28086185 0.07967927 0.45204562 0.030067248 0.028866637 -0.34935793 -0.15555137 0.011043449 0.41846097 -0.3230879 0.09997732 -0.07657167 0.10227961 0.22181807 -0.44288567 0.22547036 0.057769567 0.24298047 -0.07727422 -0.022776725 0.6585335 -0.20315558 -0.016436806 0.08896084 0.18002102 0.2850212 0.0885588 0.24269885 0.48102847 0.32554805 0.13332292 0.3295925 0.40367946 -0.22321486 0.029514372 -0.06275201 -0.1050619 -0.088978246 0.16765685 0.14124435 -0.39175907 -0.2644646
shall -0.28228724 0.21271807 0.11827473 -0.20562465 -0.11698133 -0.2905171 -0.2770617 -0.28335026 0.17821912 0.115941904 -0.36242294 0.07075802 -0.07745505 -0.07224843 -0.003214664 -0.2205158 0.17168652 0.50642437 -0.096973225 0.438741 -0.46445078 0.3170257 -0.53914714 -0.0056045945 0.182988 0.49222538 -0.44383925 -0.36148277 -0.37147194 -0.3401101 -0.14587913 0.29271078 -0.18664566 0.05555192 -0.1313713 0.14092521 0.33161598 0.10156983 -0.17932071 0.17378663 0.012897351 0.038547557 -0.31318223 0.1308578 -0.3014101 0.2516149 0.15688816 -0.1586994 -0.047044303 0.07240704 -0.11725671 0.16512501 0.17033935 -0.079957336 0.07961316 0.016193151 0.06494002 -0.07384401 0.29749012 0.2968218 -0.0010881185 0.03204058 0.02245488 0.08555869 0.108332224 0.063633256 0.19949585 -0.52659816 0.36421117 -0.13712676 0.22316845 -0.30356526 -0.63979673 0.09440714 -0.008364412 -0.095730804 -0.43123537 -0.0010327601 0.76821965 -0.12222218 0.25975114 -0.43154383 -0.3675588 0.01672178 -0.1586886 0.009891797 0.4202142 -0.12892066 0.27644676 0.22663485 0.038506433 -0.11766385 0.20116237 0.2379369 -0.23330468 -0.16744047 -0.3202886 0.038404856 0.11340052 -0.052597232
schools 0.0818404 -0.190142 -0.0047315755 0.038286082 -0.04069586 -0.11817584 -0.4082697 -0.65482193 -0.028818067 0.15867476 0.01700296 -0.4138775 0.34989542 -0.2000112 -0.051194116 -0.039111685 -0.47752193 -0.07246842 0.2529214 -0.06582934 0.19600448 0.30518264 -0.3062069 -0.34105438 0.044378743 -0.22054666 -0.05073012 -0.23960735 -0.29409984 -0.1059746 -0.44259742 0.18311894 0.19602905 -0.1795376 -0.09917961 0.21403919 -0.1446089 -0.33811507 -0.26678765 -0.10273337 0.124296635 -0.55324346 0.34474537 0.72875386 -0.5744091 0.30659035 0.14907916 -0.2498265 -0.24004473 -0.12498278 -0.32950184 -0.14016025 -0.18078856 -0.086764306 0.35385016 0.12115052 0.34003773 -0.27856222 0.36132655 -0.07872634 0.026589299 -0.30923286 -0.35373414 0.26267624 -0.05490335 0.36721095 -0.15904701 0.044066336 0.13911709 -0.23906764 -0.33602786 -0.27996567 -0.58320165 0.022127688 -0.20797014 -0.47212127 -0.8010127 -0.38598636 0.54392064 -0.102512866 0.026539214 0.13043529 0.15328456 0.058816247 0.04864842 0.014923827 0.70365876 0.006960769 -0.048034266 0.22983783 0.259464 -0.14671218 0.0611128 0.064431176 0.27644682 -0.052485183 0.45365503 0.17157471 0.4785385 0.11785914
them -0.13667613 0.2324064 -0.2213164 -0.013392068 -0.060831305 -0.18164122 -0.11081721 0.020243153 0.12176627 0.0015014375 -0.23611175 -0.095980786 -0.22830908 0.17476302 -0.20198321 0.1903657 -0.41299513 0.1888351 -0.07282984 -0.05729789 -0.122265734 0.19149548 -0.12534563 -0.1816778 -0.11582307 0.34803107 -0.20855586 -0.12426529 -0.31576318 -0.10762209 0.014604025 0.15911801 0.23756863 0.09387527 0.1514842 0.1428422 0.0522097 0.18010077 0.251896 -0.05170782 -0.38690397 0.017129213 -0.031359725 0.45846975 0.028039241 0.088507555 0.22975929 -0.21788593 -0.5609346 0.16193664 -0.29043484 0.3732119 0.02775734 -0.061363425 0.12274607 -0.13706295 -0.022667008 -0.10950825 0.004523303 -0.11382158 0.028104667 -0.16790861 -0.20856102 -0.050894007 -0.097063705 0.01047646 -0.06882038 -0.077567026 -0.071416765 -0.12847912 -0.2795557 -0.0473286 -0.23381798 0.06437965 0.29660797 -0.23724459 -0.5119465 -0.13021712 0.6802859 -0.04528064 -0.14634651 -0.11504813 -0.056528382 -0.10172717 0.25829285 0.16823691 0.6593579 0.10354253 0.11799769 0.29956743 -0.061374243 0.0919678 -0.05003501 0.04614706 -0.23616725 -0.18259996 0.07852363 0.24425797 0.0013426512 -0.23590218
world -0.0737295 0.17056234 -0.20195124 -0.23310593 -0.054774676 -0.09436017 -0.6389023 0.16946653 -0.54452956 -0.0061494145 0.09558135 -0.6641275 0.31506923 0.004210217 -0.034186017 0.3164927 -0.024643784 -0.045564096 -0.14394505 -0.18435857 -0.43498117 0.28293645 -0.52170426 -0.08679261 0.103764124 0.28696862 -0.24860351 -0.00045605216 -0.7216323 0.22962843 -0.1537582 0.41505632 0.042388074 -0.5103974 0.33046037 0.03704842 0.083199665 -0.012644222 0.4263919 -0.05831864 -0.15272802 -0.089498386 0.032137696 -0.21584888 -0.32507953 -0.13933031 0.020095596 0.40091562 -0.35979113 0.13257281 -0.124149226 -0.11285518 0.02983685 0.07939451 -0.05270111 -0.3535868 0.22586635 -0.18382871 -0.34759003 -0.25621456 -0.08888591 -0.20573707 0.17421685 -0.20708743 -0.049974285 0.29531458 0.0701404 -0.07301177 0.4329355 -0.3239195 0.15686001 -0.11880266 -0.3148816 -0.3195238 0.13424377 0.12001985 -0.24932674 0.14561631 0.44501862 0.016070988 0.28597918 0.13585305 0.14596277 -0.15904288 -0.31884995 -0.108239725 -0.12656984 0.0079123555 0.101083234 0.3063492 -0.17699236 -0.037763223 -0.14350988 -0.028427975 -0.081455976 0.17721269 0.16993235 0.0875206 0.20005302 -0.26902238
health -0.19371817 -0.017084086 -0.43455836 -0.148387 -0.14349502 -0.2711586 -0.21091016 -0.1460529 0.2884371 0.14207336 -0.51623213 -0.36799964 0.019370446 -0.015911363 0.22710778 0.00036386325 -0.26603645 0.22458361 0.45698503 -0.17762521 -7.3349955e-05 -0.030636916 -0.46456942 -0.29220256 0.3326906 0.2755905 -0.14443384 0.13049372 -0.053144064 -0.4347472 0.121489465 0.28266153 -0.25204906 0.11453419 -0.18932381 -0.19060445 -0.31702685 -0.6089026 -0.076101996 0.20714211 -0.2815074 -0.3418776 -0.34532523 0.6196292 0.059087664 -0.18726411 -0.276632 -0.006629226 -0.27969036 0.1300388 -0.41570178 0.0781099 0.018709624 -0.33389556 0.36034012 -0.3332994 -0.10742284 -0.69316375 -0.3689948 -0.5151017 0.07516735 0.18841268 0.16171645 0.14092062 -0.26934788 -0.18198077 0.5056826 0.18949938 0.2939372 -0.37628004 0.007073291 0.029929461 0.027361201 -0.059465628 0.22573577 0.01838141 -0.5451364 -0.0020846182 0.34263808 0.19499356 0.15139316 0.24480306 -0.03341954 0.075660795 -0.42902234 -0.0999382 -0.23981519 0.18350053 -0.09556897 0.28907079 0.49786147 -0.102810234 -0.36989662 0.18496357 -0.20399278 0.064902745 0.30232805 -0.6030143 0.30630976 -0.055930033
economic -0.36003315 0.40391827 -0.26054832 -0.5528462 -0.53551805 -0.020146739 -0.032510776 0.20070785 -0.22157837 -0.0042647677 0.0688151 -0.24414453 -0.09583191 -0.032100324 0.33225712 -0.048405733 0.16267298 -0.09242252 0.22083601 0.025584586 -0.47432002 -0.037562493 -0.38990366 -0.20004036 0.39106965 0.113138065 0.11409448 0.11822933 0.121017516 -0.07923929 -0.21379921 0.30458993 -0.14757441 -0.16793579 0.006051959 -0.26346815 0.16478173 -0.16221142 0.09965205 0.3884508 0.020671556 -0.22646894 -0.27970707 0.016653633 0.070454 -0.26148054 -0.06414634 0.12545858 -0.6848277 0.42614833 0.05086911 0.011057227 -0.191313 -0.15819629 -0.112886526 -0.20913483 -0.19745809 -0.53412133 -0.17930254 -0.2661904 -0.06555006 -0.50181097 -0.19088948 -0.53473926 -0.39698604 -0.16226566 0.10419291 0.17990893 0.0031661184 0.2762746 -0.06359463 0.17515934 -0.39283586 0.0060713305 0.09987277 -0.04811718 -0.3158002 0.36117214 0.4768435 0.18237586 -0.04809907 -0.25025445 -0.29990575 -0.31647226 -0.08881913 0.111700565 0.205064 -0.1553962 -0.32570827 -0.00998929 -0.07257326 0.030144205 -0.29279113 -0.06487143 -0.24226457 0.35032785 -0.18203105 -0.09749742 0.09647272 0.28987017
per -0.38847283 0.5883083 0.4644658 -0.4561711 0.09814437 -0.11147191 -0.7348316 -0.3037096 -0.013182376 -0.2624273 -0.14541781 -0.16032499 0.09637802 -0.68813455 0.06202215 0.051633287 -0.48073295 0.19775735 0.100536674 -0.065574184 -0.13129885 0.4174043 -0.04157605 -0.074488014 0.23179021 -0.034419972 -0.28941488 0.17178498 -0.8442565 0.19460653 0.3022039 0.019174023 -0.08671028 0.048187215 -0.23386554 0.24959484 -0.10030101 -0.3295756 0.334161 0.29495776 -0.31028867 0.17206296 -0.17280845 0.7618714 -0.26487058 0.44115338 0.20043087 -0.08930789 -0.0822011 0.8776544 -0.7540313 -0.3372841 0.01428412 -0.12307571 -0.42606163 -0.2325819 0.30632186 -0.13506576 -0.2774028 -0.6435089 -0.45922208 -0.25992036 0.040133167 0.17621233 -0.1916149 -0.33854288 0.41763544 0.35944504 0.119175464 -0.40311655 -0.27679586 -0.26051205 -0.336973 -0.265297 -0.11893176 0.48668632 -0.6040566 0.23280625 0.05030323 -0.31728235 0.570254 0.38996133 -0.013407327 0.54983395 0.46136856 -0.123366386 0.4908681 -0.2725741 0.44645134 0.06998054 0.28327847 0.2666329 0.19732304 -0.04319495 -0.65710217 -0.20107463 0.074266374 -0.18280703 0.46741322 0.13785549
country -0.1500006 -0.10830533 -0.052256092 -0.1526909 -0.1637055 -0.044696964 -0.45294517 0.047164228 -0.08273334 0.25802293 0.19732708 -0.38525486 0.32768354 0.2756203 0.15485728 0.1569467 -0.25673622 0.18471679 -0.079011746 -0.22887036 -0.41705772 0.085810676 -0.19960733 -0.34773377 0.40258938 0.018099887 -0.0828311 -0.007844915 -0.36081427 0.07027034 0.02188849 0.459262 0.22513083 -0.3766362 0.22915882 -0.30460817 -0.3510116 0.11630185 0.27127597 -0.0014563241 -0.14817625 -0.12615053 0.0693266 0.1823932 -0.18434817 0.04666459 0.0641276 0.0931285 -0.55310297 0.07667948 -0.1150724 -0.32955965 -0.07482253 0.07960986 -0.10895165 -0.25341615 -0.036546394 -0.32367083 0.215685 -0.21893443 -0.061898407 -0.42227572 0.07731936 -0.10720594 -0.29230598 -0.11339447 0.007936792 0.15254173 0.165516 -0.20879513 -0.15852359 0.011054643 -0.12035508 -0.11160746 0.3840067 -0.1233689 -0.34020615 0.2225809 0.5295679 0.16967855 -0.0046512755 -0.026511041 -0.15393879 -0.3662951 -0.1346634 -0.2508741 0.15594208 -0.022810375 0.35242942 -0.09072152 0.25176534 -0.16645852 0.06049732 0.05972809 -0.27193874 -0.008654744 0.048616447 -0.26620957 0.034278106 -0.13634615
should -0.04104003 0.088830024 0.115109496 0.07536453 0.2656533 -0.19068114 -0.22072798 -0.30307123 -0.039347008 -0.20634513 -0.2766892 -0.03253224 0.19596073 0.31421936 0.09019302 -0.015371846 -0.51315695 0.26643324 -0.2086211 0.29266196 -0.20861116 0.1443336 -0.2919681 -0.119713426 0.07967703 0.20903254 0.12338996 -0.037661403 -0.16094883 -0.5822509 -0.03410519 0.4398672 0.13642621 -0.22450352 -0.14433989 -0.31135568 0.03971771 0.16853696 0.05014808 0.23427166 -0.0119952755 -0.31996563 -0.09547829 0.33600852 -0.2669597 0.088857405 -0.17669483 0.016681954 -0.4556101 -0.29133856 0.0062626493 0.004718449 -0.24984212 0.38791054 0.005784228 -0.15801758 -0.24044523 0.18807188 -0.14289154 -0.06953462 -0.14135997 -0.04625722 0.11053897 -0.46148014 -0.3232662 -0.15450716 -0.11951661 -0.17920682 0.28920528 -0.052121438 -0.026364904 -0.15606162 -0.08203456 -0.17395626 0.29418182 -0.1959741 -0.45580664 -0.08733849 0.50649524 0.12009354 -0.1353138 -0.5289776 -0.028994724 -0.025165675 -0.089388914 -0.2348851 0.47995496 -0.14141382 0.38420132 0.41346622 0.3474758 -0.5854095 -0.22044142 0.001954104 0.0039310465 -0.060526744 -0.009851967 0.21972394 0.066136785 0.060219955
social -0.098236166 0.21535985 -0.31186143 -0.19640294 0.102954894 -0.043344572 0.26527014 0.11249966 -0.010444093 -0.15001087 -0.0481278 0.09464042 -0.29309985 0.24414743 0.47296444 0.21058238 -0.01922075 0.41996515 0.34736714 0.10617177 -0.02959417 0.22799562 -0.32165775 -0.48557374 0.35623565 0.057512484 0.019372202 0.053296622 -0.20210741 -0.11233332 -0.13651855 0.13764904 -0.052005704 0.09626351 -0.04182 -0.3283696 -0.11000373 -0.5056177 0.0070149987 0.30758005 -0.057362515 -0.19394311 0.05918354 0.33224997 -0.17645587 -0.23644383 -0.2799372 0.30531937 -0.4086378 0.3954061 -0.2532623 0.301993 -0.18716866 0.1936449 0.4473521 -0.5132991 -0.35605276 -0.32876533 -0.6203877 -0.1915575 -0.19410028 0.3273468 -0.16919741 -0.05567842 -0.62095314 -0.1501772 0.416643 0.06004142 0.21287219 0.27452484 -0.02486756 0.077031426 -0.18291643 -0.045226913 0.4210462 -0.025938792 -0.35693994 0.13516532 0.61955166 -0.042769115 -0.05607394 -0.029322267 -0.12606741 -0.097917564 0.036347855 0.36755294 -0.18179663 0.117100604 -0.27982542 0.041519705 0.021465346 -0.1290216 -0.38436413 0.10682618 -0.34803858 -0.044506412 0.17061508 -0.33244765 0.00071631983 -0.23023647
into -0.11206388 0.2789434 -0.28732485 0.029199138 0.08920056 -0.20111102 0.3225581 0.04611599 -0.21480478 0.30939275 -0.017861206 -0.09692021 -0.21868663 0.3976686 0.15209118 0.02931778 -0.069560885 0.2128085 0.23696032 -0.19048701 -0.028542966 -0.115791224 -0.22862735 0.13202946 0.1979555 0.9089192 0.22387299 0.014815896 -0.45646945 -0.053139992 -0.22300468 -0.067178905 0.12429248 -0.108866714 -0.06879154 0.20463218 0.2673409 -0.3055718 0.235404 -0.15690596 0.14885639 -0.13208292 -0.460734 0.31131396 -0.42251968 -0.2658632 -0.32289076 -0.088080876 -0.31848922 0.29490533 -0.0839306 0.2791146 -0.017850045 0.3982013 -0.038535498 0.16227868 -0.033415694 0.24712475 0.01487814 -0.30712524 0.085132204 -0.29940337 -0.08903418 0.3604904 0.028402405 -0.014331956 0.3408858 -0.17260765 0.13256802 0.049911756 -0.008915213 -0.052253503 -0.35064572 0.09001189 0.041207716 0.1581286 -0.19465876 -0.18223056 0.39287844 -0.29290137 0.06870504 -0.4053283 -0.10685613 -0.09712206 -0.0798223 0.040797934 0.07499661 0.16336451 0.4377137 0.30684465 0.1138669 -0.30510932 0.2474878 -0.01515128 0.0463961 0.051755752 -0.06744165 -0.01591334 -0.010042247 0.0009025563
every -0.47491783 0.15510988 0.25002542 -0.24752286 0.134378 -0.18282996 -0.40543377 -0.50915617 0.05683165 0.16379511 -0.23299354 -0.49701712 -0.0005331031 0.27233145 -0.123951755 0.16183932 -0.13599491 0.38274676 -0.0045084227 -0.15699504 -0.0830172 0.0717869 -0.010459053 -0.07887617 0.029465515 0.016383424 -0.12714483 0.09812296 -0.496658 -0.13822645 -0.24607177 0.2907525 0.14291826 -0.2850528 -0.429905 0.015615013 -0.40893728 -0.2650838 -0.09155951 -0.46291003 0.098068036 -0.23769891 0.026898297 0.32694966 -0.17486463 0.25627184 -0.216023 -0.10172387 -0.37967312 -0.3983009 -0.071876295 -0.23209408 -0.009899262 -0.0010675833 -0.18584633 -0.46907157 0.2482225 -0.26779962 0.2641047 -0.16034783 -0.18340234 -0.30900377 0.19819248 0.12650004 -0.3141478 0.1297806 0.14077485 0.08213061 0.44703805 -0.16464815 -0.14996018 -0.22857663 0.14135364 0.3769007 0.21831153 0.17153448 -0.174652 -0.16947158 0.20957395 0.050499376 0.12269829 0.1506689 0.0884869 0.22679915 0.023682432 -0.15671772 0.5112562 0.25018725 0.603959 0.13111311 0.09006452 -0.21338485 0.4564176 -0.15256749 0.1255544 -0.2320956 0.534535 0.02014722 0.3470946 -0.17464785
other -0.21840556 -0.08758179 0.2217651 -0.037502922 0.3423407 -0.4325871 -0.14262158 0.21876603 0.038469125 0.42634192 0.19086091 -0.3327563 -0.2008832 0.13783431 -0.18474565 0.014517499 -0.09208576 0.083444774 0.14990884 0.15811007 -0.13469192 0.2476308 -0.47279373 -0.15920329 0.2285334 0.521867 0.21429676 -0.22571386 -0.51361424 0.22678651 -0.2448128 0.4827907 -0.080370985 -0.20387495 -0.041163694 0.15435581 -0.18722163 0.025190135 0.015180902 -0.09036459 -0.21779078 -0.32592827 0.16692504 0.48136505 0.13303882 -0.18203731 0.39358494 0.31841618 -0.3566731 0.21522962 0.0670722 0.37989935 -0.1856124 0.074634045 -0.09905245 -0.00044531343 0.17622954 0.038406927 -0.4106338 -0.14410493 -0.16718414 0.11287668 -0.22220889 0.1457538 -0.41808644 -0.22416674 0.01280293 -0.106649056 0.35519135 -0.017998025 0.08506016 -0.03184347 -0.3026949 -0.20656782 -0.18071792 -0.2078535 -0.24612638 -0.1744155 0.62212145 -0.3694713 -0.031585947 -0.3903887 0.011268138 -0.22955294 -0.09100826 0.30597782 -0.0022424224 0.10343549 0.09584454 0.067680456 -0.04035787 -0.09955971 0.13002543 -0.03752874 0.03791626 0.04267316 -0.0452412 0.071731 0.12824301 0.0216709
service -0.2514467 -0.18172143 -0.49305484 0.16460592 -0.046450704 -0.29927328 -0.00233754 -0.17856777 0.01863025 0.2070012 -0.28918347 -0.38653356 0.13227679 0.13207018 -0.18497182 0.0160171 -0.31265736 0.15896903 0.32908407 -0.42564145 0.09880318 0.062679164 -0.5089299 -0.15309648 0.115696646 0.5662457 -0.1739145 0.18581097 6.864347e-05 -0.4117628 0.03335474 0.20222102 -0.44438124 -0.1329246 0.05690055 -0.21834846 0.014479405 -0.4816126 0.033116944 -0.0726988 -0.20050551 -0.37041155 -0.24295671 0.2424153 -0.07573316 -0.20823883 0.038228054 -0.0014588492 -0.27532008 0.033330508 -0.20457837 0.063976906 0.055238068 -0.30519256 0.18047178 -0.05243118 0.1334536 -0.4670075 -0.3763756 -0.47723663 0.27082357 -0.30372235 -0.012341536 0.03894919 -0.19223194 0.0039004486 0.4714634 0.19933164 0.36068267 -0.3335438 -0.12832636 -0.06408979 0.08986875 0.16051179 0.020291343 -0.1653392 -0.52169967 -0.20489442 0.33603525 0.24733564 -0.029516352 0.13060005 -0.051236723 -0.00033528393 -0.058305994 -0.16473314 0.04155295 0.25022978 0.26751196 0.17144871 0.55882996 0.11679248 -0.4056009 0.25971577 -0.25675339 0.2977303 0.1669198 -0.41877854 0.3281749 0.084111996
year -0.033522714 0.55666965 0.23115464 -0.23064926 0.014713834 0.09178608 -0.495206 -0.057961106 0.1645399 0.16053155 -0.063350394 0.038628355 0.15776919 -0.117239095 0.027326895 -0.08493093 -0.35510367 0.31922603 -0.03330478 -0.2394232 -0.004114297 0.26956493 -0.035075728 -0.051877193 0.08912345 0.2440532 -0.12087537 0.27495107 -0.7294392 -0.07754005 0.09033532 0.3795213 0.036624465 -0.0068524657 -0.19388038 0.21374568 -0.08397748 0.06227848 0.49207947 -0.107432164 0.08583866 -0.08143019 -0.11292059 0.59456044 -0.14033422 0.28450933 -0.10548391 -0.08191313 -0.22419414 0.4274752 -0.31125793 -0.14076886 -0.037515067 0.23800719 -0.08508637 0.06639935 0.4499653 -0.33065325 0.49209413 -0.7579133 0.09175521 -0.13287868 0.12817301 0.23949292 -0.013331627 -0.08891471 0.16595112 0.31297496 0.25211746 -0.3431008 -0.112421595 -0.27834424 -0.20183632 -0.0014524907 0.24181288 0.13457589 -0.45843518 0.10664526 0.12028724 -0.49545226 0.43909514 0.30210397 0.0816779 0.2069483 0.2641302 -0.16168557 0.38868976 -0.054134153 0.4197674 -0.08003998 0.3968612 -0.08748862 0.3890618 0.07163275 -0.16654745 -0.06311331 0.24032664 -0.33300334 0.5258718 -0.30985138
provide 0.078703985 0.48234156 -0.37755382 -0.27515474 0.19151804 -0.26104712 0.025651231 -0.098355226 -0.069453545 0.29714885 -0.20348307 -0.060161117 0.0076736086 -0.05233234 -0.21520858 -0.07283911 -0.21460496 0.2821447 -0.115417175 0.11781337 -0.00847612 0.17628641 -0.0116010485 -0.3515852 0.3873773 0.37957242 0.045643374 -0.009684067 -0.473943 -0.26359388 -0.08714736 0.11004626 0.13579927 0.33982724 -0.20022777 0.06174201 -0.11989766 -0.20655468 0.08840118 -0.097945325 0.08466096 -0.35660782 0.056958098 0.26813036 -0.1626541 -0.19789302 -0.04906252 0.011746295 0.004669487 0.19761623 -0.2586995 0.31565267 -0.14623939 0.04017972 0.2953211 -0.12108666 0.024325255 -0.33289626 -0.10362107 -0.22718443 0.18688272 -0.3003535 -0.384899 0.08638827 -0.26268077 0.38668874 0.15522729 0.17347196 0.5463298 -0.30225992 0.3115561 0.18824682 -0.023818474 0.10746459 0.20653856 0.03743385 -0.40816155 -0.22975844 0.2613691 0.2144353 -0.12689911 -0.21820086 -0.0018985753 0.018512491 0.09503682 0.068109326 -0.19548245 0.04221831 -0.0006484798 0.30512437 0.0009742739 0.0756715 -0.17683609 0.14290558 -0.3427232 0.12752059 0.0492475 -0.16457358 0.29159608 -0.18036161
